{"metaData":{"sizes":[2,300,1],"learningRate":0.1,"epochs":10000,"trainingName":"AND_TRAINING","errorThreshold":0.001},"weights":[[[-0.4853149978208981,-0.8742984959959037],[-0.5760342764095187,-0.18847564497444594],[-0.8086488871841656,-0.5179127994093746],[0.30048380881681824,0.07763022790036139],[0.2720110422806034,0.5562428168706752],[0.7909141254548919,0.6917347045283424],[-0.424575164051062,-0.24459372221446116],[-0.45477209365234955,-0.34860924320083425],[0.47814192661909816,0.21608635237749318],[-1.0377049677626344,-1.0763251597053405],[-0.24009172974683335,-0.5477479559584378],[-0.9499693239105127,-0.14658331346802048],[-0.2729318355936113,-0.15272426933803057],[-0.8806450289194995,-0.9062827728228839],[0.41463995080779437,0.5495814977151559],[0.5810395590088472,0.2873738821530475],[0.7968946838270856,0.755412691285306],[0.07641136567904455,0.6234652309659888],[0.48968254326240007,0.4433385261365367],[0.10862762394936624,0.7481955882057425],[0.3123261331853144,0.1663586497254567],[0.6321445425291736,-0.10425857125733512],[-0.03765821119357417,0.0523090714123805],[0.6389519168026991,0.2428220385088255],[-0.34999343445959935,-0.3514651337005966],[-0.7034837891917808,-0.3819639217211863],[0.00543922157533536,0.44502234691217923],[-0.4489152273274515,-0.555602819789969],[-0.3524928746574144,-0.23713763332902493],[0.9428069571482381,0.8661504163200886],[-0.4696803741112465,-0.8600481047114639],[0.10796749917842907,0.08110994197861926],[0.26359649700009785,-0.22405371773588884],[-0.1976001178471005,-0.27292173978543643],[-0.36021223904147176,-0.9372017268413798],[0.3584324519222478,-0.4199921547832983],[-0.3162503655523364,-0.282992598141185],[0.28690181580399027,0.22001777423406468],[0.7365091294548957,-0.013687315188983303],[0.22468173958461804,0.5222378963187915],[-0.8742497061797092,-0.7846105084640761],[0.13629865505937305,-0.8284873839636487],[-0.07708225429661178,-0.13348414829129052],[0.07384517134510384,0.2181904436301687],[-0.5313254507003938,0.09434539498106985],[-0.1840577483040534,-0.006144889451609836],[0.9990181219217859,0.9338953215963488],[-0.06595628656340759,-0.3098647035077728],[-0.507286288504174,-0.4049154092081683],[0.06537378605395401,-0.11161773155317864],[0.47355293642197677,0.7398721802896017],[0.19541711594768274,0.9456844981204267],[-0.04615568541700764,-0.6837279967936717],[0.3386900367671407,1.0520599790947824],[0.3403292713334072,0.17796652460198661],[-0.21104627548534205,-0.28403740135053573],[-0.21531931721486136,0.023203716045188307],[0.4264607830826179,-0.18757716381411177],[-0.09981894709761897,-0.2987589677243696],[0.6699310030305345,0.8366650684717037],[0.6812388839411371,0.26333253970073034],[0.3183850327969426,0.8520303986105341],[-0.13080066388466566,-1.132140422464504],[-0.9746562335402044,-0.15913537286104143],[-0.5480643312440937,-0.8551055780913007],[0.4376270775957883,0.3306270780885326],[-0.7921393374466883,-0.7275527543421548],[0.39062699073325163,0.5219225089265231],[0.07761855254934277,-0.4077372517156696],[0.7312985169327553,0.24074660516009125],[-0.7876564916589006,-0.8347397559259272],[0.8248388912577459,0.26026040855774213],[-0.8623341564290392,-0.8613761783756643],[-0.754085297592433,-0.03651924759299705],[0.807344721539066,0.5227975783847113],[0.6244216826323797,0.13399814563338835],[0.7358659598543877,0.399230571943254],[0.09415673184023836,-0.1267916199952229],[-0.34964111273123377,-0.36808591749195935],[-1.201104191521587,-0.8378637345739306],[-0.07544163649451113,-0.45015699943134135],[0.5933206421623654,0.5986433870095681],[1.0142046941921667,0.4942588428473524],[-0.08743051653890792,0.5204171173434289],[0.5747698470388707,0.13131347854729836],[-0.014752228415774197,-0.6442882695998899],[-0.35609807715077396,-0.4943927617475669],[-1.1176084678123517,-0.5134248566129832],[0.4075288485821353,0.6224743874012385],[0.0994933021038002,0.25344495258014454],[-0.6840270892538902,-0.3809681582989954],[0.9761145327139662,0.7495491144769609],[0.07370814886168438,-0.6775981096450054],[-0.21818682379993817,-0.7440367726486313],[-0.018243126240216425,-0.08957721022616008],[-0.7373086944480924,-0.9960565929375713],[0.449389354901446,0.43420193397554596],[-0.681812243313538,-0.24056482936954593],[-0.9102249342892685,-0.5785995468129768],[0.5493649260674791,0.2337599437768399],[0.8499147477335072,0.5944256581932055],[-0.48338852931731185,-0.6701677384717942],[-0.22229087460707309,-0.7987703493800948],[-1.1694049090443523,-0.4919682442701454],[-0.6878594521640043,-0.5307755341911767],[0.264665351744826,0.5749378380519959],[0.8766021657091735,0.25572463305335336],[-0.5898648480235055,-0.6460020929737409],[-0.1901191435324565,-0.7151562060273373],[1.0704673278641608,0.13999154745510217],[-0.6582571678995242,-0.6677266169163233],[0.10520418781598076,0.5788023470469638],[0.43040290503393797,0.6897510032651741],[-0.4181437378035796,-0.15644864978830578],[-1.0035472702220445,-0.4702781296560496],[-0.33153875918961134,0.1286678020565174],[-0.9041950776690121,-0.145504923053647],[1.1079229324162836,0.523925686306616],[-0.2970881119597965,-0.583920062721183],[0.5451281477577901,0.032229504207632896],[-0.5054237920415375,-0.582929972647194],[-0.7237070132090886,-0.6794978378241769],[0.8116766862986635,1.1439667753749845],[0.24886460860981138,1.1398758460676186],[0.6011526500596694,0.166192172681814],[-0.7457467940154283,0.0012527988898858979],[0.18839540975137276,0.9842520399206024],[0.7685942246693679,0.5310890715872539],[-1.190433796860245,-0.7432422710357296],[0.06339955927699584,-0.04567588991998269],[-0.3402530522869571,-0.8023797667261706],[-0.45344191208117535,-0.3249548843034468],[-0.7693731584907519,-0.6730485710674876],[-0.26204434415210887,-0.4018988580425498],[0.18115994116969134,0.21813494168832137],[0.6366864050461866,0.8472430259444109],[-0.16573367812168466,-0.46803055535440025],[0.3013777150405538,0.29534012995718184],[-0.1598614038500908,-0.398702843953629],[0.13970756237944254,0.3726430670123553],[-0.24862682838948913,0.3321178425265207],[0.9600952808487694,0.5361574850945903],[-0.4205428301209293,-0.6518173500695719],[-0.1243448418997804,0.003946151011371116],[-0.8464632151612614,-0.9074192860836945],[0.724415545775451,0.44145312900325795],[0.44698130918682755,0.7006328197537384],[0.7439273651094649,0.2907049698654234],[0.3930651872518686,-0.23626476466884666],[0.30552723837990975,0.7240313488060088],[-0.7544832640295466,-0.42182566154139384],[-0.42528788284974467,-0.5580788798556678],[0.4980865241551479,0.8214985362501938],[0.5798443626427068,0.8515156998109087],[-0.5575534183490444,-0.8116027947228198],[-0.3250682765495508,-0.22355497554857584],[-0.2910905172408106,-0.3239710773861826],[-0.347529983651783,-0.5453530228201439],[-0.5244959758705129,0.3631869256604695],[-0.19698682074399873,-0.24743927230463583],[-0.016605865924698326,0.8786486320791023],[0.6880355655328784,0.8581892280031639],[0.7843412998761722,-0.18659805886878256],[-0.3387789536781434,-0.12763732070491068],[-0.3552700591071248,0.15005251757004723],[0.6786148066317786,0.6168751046561225],[0.010241772147835348,-0.04999424219945875],[0.004084273131500629,0.0683540157248424],[0.06751801593108686,0.26241202095908994],[-0.5182105485585203,-0.45503109154649246],[-0.6332376499289577,-0.46046462805283955],[-0.11688050309404746,0.16889710739507147],[-0.44054479596377527,-0.009013032552676867],[-0.14498439501321406,-0.9238413001524048],[-0.3845436165443339,-0.7049284535651795],[-0.6517337520504808,-0.6751479574602637],[0.8921711242021036,0.8667223130520331],[0.5878548673390026,0.7976575215123447],[0.4041452171473617,0.1365908292054893],[-0.21066553978324795,-0.7663644295246133],[0.35618954192910385,0.6122388443198028],[-0.14210029795493567,-0.5404988588661213],[0.6072575696232091,0.7400966972384986],[0.3440326231364814,0.323182036937649],[0.09316250962473115,0.8260015146580582],[0.13583666979006612,0.4080012360765446],[-0.37026800534791104,-0.40054773421753026],[-0.3250799084368501,-0.4574359526756643],[0.4966153659819757,0.8808222166200019],[-1.0679296259164215,-0.779420329682679],[-1.1766849736030145,-0.5911369254885704],[-0.1004904857687204,-0.926925501519761],[-0.2576051800380656,-0.5028660085298048],[0.6552935980777982,0.18169086284439206],[-0.016788134711649493,0.02669973602255758],[-0.32165455646939023,0.5239645147711817],[-0.226380175197289,-0.4979957597960115],[-0.6395448944287757,-0.1093920016520037],[0.20154023172594865,0.4806288894827809],[0.4127518768535051,0.5666159811584169],[-0.24705443214771777,-0.3214467306079039],[-0.4882380842854834,0.1450070274501158],[0.45913956606089584,0.14933156517171306],[-0.44714751525916246,-0.2847230754359566],[0.11937992550618404,0.2457284783698553],[-0.37469811137780235,0.19844054718928367],[-0.23741017148710153,0.2112590740262209],[-0.1495930667845912,-0.3794590583304189],[-0.6810937075899738,-0.9331755843142421],[-0.7082951927567083,-0.36609855404541697],[-0.41132763462509875,0.16449896835713304],[-0.39075067387019574,-0.12941357780715793],[-0.32250040917037054,-0.13511445063867547],[-0.38061859287994965,-0.5189951624648488],[-0.15726096366902428,-0.3003965207867071],[-0.26832185072147285,-1.196290865079848],[-0.2583057636652708,-0.4772003589459516],[0.7752342134856541,0.6595877158121203],[0.07510634495864295,-0.3285639504445962],[0.5980080754792625,-0.18683092321244396],[-0.3737551049059744,-0.09551529683187945],[-0.6077618417665241,-0.33820508588712533],[0.22503883624481028,0.4715766541783097],[-0.09925568182384215,0.3401760481584281],[-0.5087993130708016,0.012063741605624189],[0.1901362369566254,0.5863791537399982],[-0.3870530668778744,-0.21396502004082563],[-0.6298580032376754,-0.6740300031181442],[0.4629897531105428,0.45956200696498034],[-0.5331100443080852,-1.144550626341961],[-0.7950717548418802,0.06570518258491718],[-0.17225394363628876,-0.7961479200366439],[0.3861794715924795,0.5064175823097834],[-0.33251636647761185,-0.3871260834499019],[0.038376436115458615,-0.08111041128888179],[0.5899725569155142,0.4554528130051127],[-0.41253940324026017,-0.23213353520769237],[-0.9804506506022304,-0.8563564962228379],[0.7214218028776463,0.3651727237626568],[-0.49327569864689663,-0.7622091929049373],[-0.1913239749560538,-0.2304089901163129],[0.5534054352457413,0.3760843158014781],[-0.8492099164519269,-0.56510200022299],[-0.271019848365236,0.1287343850133657],[-0.4460184905540981,0.3184183224278237],[-0.5679861723853343,-0.2127273910010301],[0.374421217041849,0.016699358613783577],[0.5235983953635107,0.1492034704112053],[0.07920163453570567,0.14811708550649472],[0.7508053178073069,0.3384150064321271],[0.48595536891542507,0.03710805124030183],[-0.6450428244859951,-0.4849373610099202],[-0.4046642074716214,-0.2975784140234976],[0.0592063411389516,0.11612652479160825],[0.5147631772342065,1.036233410079866],[0.3267164655332798,0.1457219863293094],[-0.02092007786790667,-0.7426517726721104],[0.3346091097762058,0.8456807084747884],[0.29501528572409874,0.39886096854033015],[-0.6290609764779725,-0.7817659246766198],[0.8434470405411768,0.8470893356101317],[-0.9385284997521962,-0.11195572348877691],[0.7384111730604545,0.428977267995808],[0.13237486884180252,0.3736004435710689],[-0.8955492424421193,-0.5888275360271215],[-0.3083090678506375,-0.15919616971163505],[0.27019347741322686,-0.506266831740667],[-0.3635452134333651,-0.37963666993860934],[-0.6979419020101079,0.07575688950786151],[-0.6988436535736734,-0.3452388173831509],[-0.29565458145653406,-0.855011203008226],[-0.19727692815849054,-0.1097784812448518],[0.4320964689951905,0.7988700858047217],[-0.16723909112085958,0.3769352130415821],[0.0991154110518603,-0.023984034158793188],[0.2791584287174259,0.24660631167550195],[0.21258591773814386,0.3769566146701593],[-0.6493398820218592,-0.3340812662395056],[-0.2564273516561103,-0.053190307851489885],[0.578273558646132,0.05119651220233665],[0.5849574634403444,0.4147698268895759],[-0.46054718449619647,-0.781391221167648],[0.777548484088623,0.6942984595803187],[0.03513099075493608,-0.0784379111026733],[0.8383647189113995,0.4963175852985277],[-0.61013171517498,-0.3339036430561563],[-0.2904825004469299,-0.21588339407030332],[-0.7050699872591095,-0.19167134763091548],[0.018313502010124553,0.261028392373893],[0.7920822893548751,0.6447708280954186],[-1.0349927377623054,-0.4197032493050864],[0.4277285509336852,0.31641854919252044],[-0.1940677058199465,0.24943667839327247],[-0.7573184261656064,-0.7888252698735478],[-0.10459707256211367,-0.7686086593898915],[-0.21609378782251162,-0.40665881776664814],[0.7142996109543609,0.4670744595616546],[0.6368068295412661,0.8660602619974883],[-0.26062080059003695,-0.6911090739324357],[-0.34116545147792715,0.11951752289492612]],[[-0.4559672776972674,-0.25006583984769726,-0.5347772020271676,0.03150029401573142,0.42298600346549503,0.46273080887544504,-0.1361718287025494,-0.09227616392080813,0.08518250900790082,-0.6206088099893802,-0.2228659954920541,-0.2962481473825904,-0.4068767193557372,-0.4952112751100525,0.17660630597082574,0.1995347863975086,0.5095844318646382,0.3515772489372925,0.45286941275663817,0.3071287510199032,0.35056235048061757,0.17069787749464801,-0.2395719839506325,0.24958178247088267,-0.20060469411705614,-0.37094044830477296,0.11892684537580486,-0.19828413547833182,-0.1818071194022632,0.4890595389890767,-0.37966587989503353,0.19905527330984782,-0.07715608218399962,0.059166129841759785,-0.4288964644406857,-0.06401481129010338,-0.04032694687532526,0.3739450337747311,0.20175229625425922,0.34575175131316926,-0.5507171388825666,-0.2191832110129907,0.002585817238236006,0.03035518557807241,-0.09478127231614844,-0.12092810602457515,0.5842330703288986,-0.14656814423841694,-0.12194850277758343,0.11863289606924454,0.38560686538809885,0.43325444500430793,-0.3042443774255619,0.46716845072469904,0.4220093461587382,-0.32788555385757995,0.12637357205378533,0.010011083371649795,-0.3629382790707804,0.48899788981738,0.4623064074548257,0.31742612755432686,-0.4889371802223442,-0.3712075646312564,-0.3961017292764788,0.2951517863930139,-0.6110941897314396,0.25534540907432585,-0.1241736073472119,0.27887877955932316,-0.5514403701153169,0.47152163949840314,-0.6051552960153957,-0.35559481471571336,0.5046162392606486,0.43451251708189265,0.3653736470978341,-0.004518549830755157,-0.0898428878423792,-0.6865761953365507,-0.2795724695852969,0.4776421563424391,0.5497404192214166,0.19422112101030142,0.3691078377770762,-0.16996314700872472,-0.47578416762052167,-0.5709940145818697,0.4141164344507192,0.1372983250249356,-0.3154645419414624,0.5470873529217679,-0.179974127777227,-0.4028606141983122,0.32634765634346036,-0.5264350456431592,0.12451834693773874,-0.16376207531847622,-0.5237964809090468,0.3560397889756724,0.4883394441350873,-0.1907262315127846,-0.46292909362483703,-0.5339399978207162,-0.35956601267096616,0.3513717587295084,0.4848025299034178,-0.398310782758014,-0.2862385248185936,0.4861258237299156,-0.5082185025759662,0.1394518715982038,0.3352721204561528,-0.1712480196406499,-0.5286680011642341,-0.0334174818624284,-0.3816738392400534,0.5373884202541049,-0.13360701016684384,0.2989256342568671,-0.20235581134549482,-0.46129277611957065,0.6379437260200042,0.5056594273830073,0.3153638286120837,-0.26065784220914856,0.4148538513661659,0.301686521550962,-0.6457373586241768,-0.0755946366405411,-0.4764000835578015,-0.08436957270274588,-0.5581470354695353,-0.41633592686389087,-0.30832218185598437,0.5506945793293834,-0.33403092980758603,0.16601280389157697,0.00914671027604072,-0.07709925400363593,0.012370699199078425,0.452671641938736,-0.4102111669557278,-0.14711964508894193,-0.619776724133228,0.3635537638783325,0.2570441204551376,0.46206919726599754,0.00246108923240422,0.4166203603629272,-0.43718473872200725,-0.2424726741042491,0.3408477508320524,0.35416174121490945,-0.5191915904216349,0.11444189837675879,-0.3400454213661614,-0.17532585706975595,-0.06353675299873161,0.03535094844857567,0.32273020282303,0.4309209686722303,0.18922159625483423,0.028566408750186432,-0.0068606198943718145,0.38149345794171824,-0.3659796955927081,0.0720777788754247,0.16317709008967418,-0.36566823109329166,-0.2515347460917232,-0.16596019524221214,-0.02812137512225452,-0.46309111846502893,-0.434293196714975,-0.24154088933220733,0.606030738065695,0.48149287813850494,0.32941331584107353,-0.38033829136906555,0.40090172876145175,-0.3502803888352883,0.3998405322390677,0.021307815350663586,0.36501427915010887,0.3874844866200927,-0.3179402437504629,-0.27117370439350097,0.5161031999147547,-0.5767457491886954,-0.6157869535777446,-0.43137714492394885,-0.21566347699394106,0.20447025521829587,-0.02370106030889163,0.06072758534083898,-0.2700760839907037,-0.20012312841078506,0.03524576717848227,0.3329329819323052,-0.014420630244872161,-0.13960931440512356,0.012452423279376708,-0.2829462304854409,-0.030229088216104455,-0.16426892540593885,-0.11056267579703778,-0.009897677862016337,-0.5065934142174031,-0.30026584000157275,-0.12976569027589266,0.04663017928322083,-0.4591054729599993,-0.06910980761014685,-0.08692532923066965,-0.5431773245048998,-0.07567081394254754,0.5606653252907712,-0.09225821799952566,0.11205117310027127,-0.004817172902593657,-0.21474182869630506,0.26087038130488654,0.09353450237201416,-0.1782405165514424,0.2803237188411551,-0.3807633804842805,-0.44906710267193956,0.12938301141144426,-0.5373253539447754,-0.20519039012587634,-0.23437797836086613,0.3732699011702343,-0.03805568529117067,-0.17898015241354895,0.4653815725432279,-0.012511149116795727,-0.6322413262610286,0.3827907171093383,-0.29039373247384714,0.22664934385998317,0.32921369450883353,-0.3904270299250983,0.06948067497722392,-0.023417618744128205,-0.3348730114212659,0.15156984770393847,0.17309571126346748,0.2215466768037497,0.2625640208588911,0.05291335661132218,-0.3184135133457558,-0.05503203050101073,0.2565566047935247,0.4851081949946583,0.15989914332740301,-0.32962464121319984,0.47421505841646805,0.2505708615247201,-0.358721001168858,0.4340396346453136,-0.3040295083087947,0.46650557990369673,0.10788414926635885,-0.5769292726480644,-0.3819933356055155,-0.12732872268757248,-0.06314477104973372,-0.16071259007927444,-0.19356761268880995,-0.3348761651580772,-0.3324643001347603,0.3444429255021162,0.07905173499899364,0.015291719780633732,0.18658772466499712,0.38029021077889824,-0.4557785837898859,-0.2915744303943372,0.2536457479217282,0.41974778033410687,-0.5121840943226641,0.27733358553828924,0.13159281753641355,0.4813873520381891,-0.3780264716426016,-0.3737730333140767,-0.23767424617746363,0.01987246189922545,0.531258788923359,-0.586852781916546,0.1870901282579456,0.052268918109027375,-0.42321808893106316,-0.2829008933388129,-0.3065348473680581,0.40115730105186886,0.5844317469660232,-0.2786247646017537,0.08183403575735407]]],"biases":[[0.9070380709502528,0.6861243375662821,1.1954116265583328,0.35285967212543734,-0.4859224743919225,-0.8293236526958438,0.4620663040707591,0.4677559270162673,-0.1788315293696945,1.5317472095641376,0.5115743130144358,0.5159823721741403,0.3207128877530314,1.203794124802023,-0.5182285314492656,-0.033499550633661015,-0.8990984526193864,-0.2408182810151659,-0.8385659075090561,-0.5128712697288095,-0.0568218405182712,-0.542721554536501,0.658173854523099,-0.1691605719692328,0.28084383256191014,0.4390477168280205,-0.06451449209449821,0.47143941833420544,0.006020405023886937,-1.2888114392238728,0.7709617704299476,-0.6641943021606899,-0.4373261871583366,-0.050348130339739644,0.8630814591203957,0.14480178187021392,-0.26381068412343456,-0.5199791810941091,-0.044082617024073636,-0.3327193786940299,1.094129846549805,-0.1646576005327949,-0.3469007984503294,0.09791776533889217,-0.22887824518683744,-0.285242796342137,-1.3422511179929697,-0.2858799925797481,0.3395716874705564,0.22072014424661957,-0.7709670422953075,-0.6460939346284367,0.10557813927293389,-0.8931933439753331,-1.1016596587388179,0.8688990785391137,0.36606834242690683,0.2917642985077939,0.47079341147592163,-0.8717495340786912,-0.33391026871243124,-0.5651482823425644,0.6500875915842357,0.7378006886513232,0.977963850647118,-0.24165973818116296,0.9444744028592209,-0.4293971493376619,0.4631119224354485,-0.11964698077445678,1.079615334710136,-0.5463124099451395,1.1858379465240503,0.24896137368759996,-1.1676319784416378,-0.22551693596027725,-0.9111287471379019,-0.43470815204735685,-0.29134037591403733,1.4659700277196595,0.5092162152377632,-0.6915130633641111,-0.9004540837353014,-0.47089695974760176,-0.4616337702786049,0.3964818517686007,0.7419350755041424,1.2375978680124886,-0.5405605168872633,-0.06326879771139574,0.6815148034537436,-1.2154191861064627,0.5751931643797739,0.35275576341345916,-0.8008541138335585,1.2586223127108556,0.02483676199094012,0.4174178006410679,0.9198435747786454,-0.10054049802710248,-0.8551593306158438,0.48206370058101666,0.46222619544822124,1.164081165390276,0.314565947676482,-0.4620047975034139,-0.5064453849420743,0.6984230094037154,0.7280901534390639,-0.6160410293177793,0.8871700418856684,-0.1281635150643303,-0.26725044811123,-0.07355777403607987,0.9276518759610008,0.5002611609084958,0.35680763944286004,-1.2155268333917828,-0.2636657687992687,-0.620819146780721,-0.08444118914429423,1.0752912806565276,-1.3924480038240423,-0.8073670819746329,-0.2688599111861867,-0.05709270161949757,-0.635220857342036,-0.35871683582697284,1.3603883255351514,0.3102696245426506,1.0138037648431486,-0.013208681335651416,1.1090472792423414,0.33891645820731586,0.9638042173935728,-1.0104675938127836,0.18821773239407968,-0.6156340205271639,0.1019063779676401,0.1432174235608074,-0.22811099123052905,-0.975132538369406,0.7259134989025126,0.10593130585197338,1.2000885054708255,-0.6827115097971775,-0.4654065605911219,-0.9122883176397504,-0.27481946290606724,-0.47173920272760356,0.7701679818754508,0.2310858915035129,-0.5389142966271432,-0.9557778187401387,0.7617922283858418,-0.2095031658504437,0.5360749535300791,0.41534105935761223,-0.17119819044456405,0.3295937418184455,-0.14351312517152534,-1.109151393544538,-0.033983423638180105,-0.42099397980062037,-0.29327460389037047,-0.9411998235558297,0.9145001077584612,-0.476647633731396,-0.4050644242957133,0.3568494544086349,0.1521834022922721,0.48560480347399043,-0.3123500175974699,0.47515695903284677,0.9245958922323758,0.35561624012155985,-1.241497029098644,-0.9138261361276561,-0.32693904674015184,0.6019433279888147,-0.4712236691911079,0.13275563571235421,-0.7916507016201317,0.18917347894039668,-0.36915182597444346,-1.0539633967259858,0.06902389267773817,-0.01613626030579368,-0.9713368847936622,1.3054108056065403,1.2210031241468104,0.5150666097534702,0.13719421390352624,-0.11695179807326721,-0.32600338451829464,0.13093148211741637,0.4470043069273931,0.3305798222120462,-0.2432035387882036,-0.10521692565473106,-0.11127525540409684,0.5193529547213301,0.3425572662262474,-0.0672641141688375,0.08880842374908356,-0.1187513756805178,0.5389067351229974,-0.43464032510652445,1.2171417753221043,0.2849855311530732,-0.3799893254818207,-0.07878059422286782,1.0605184667256282,-0.44013175935386695,0.05136822609602041,0.8674520939118022,0.27183428149706823,-0.8130502431578559,-0.15152787891572236,0.3706576655218015,-0.5080047379912708,0.061985155177407096,-0.4132609790337433,-0.2558850258714629,0.13535185035303557,-0.29444277098214794,0.49261613517709096,0.7760447913454234,-0.13645309118454832,1.2267937199900403,-0.11398159400794083,0.31386982175621025,-0.6273210715052946,0.32383556303578886,-0.1810247472184239,-0.546762651180396,-0.06487419135757569,1.2739322615903321,-0.9463347025500235,0.6246653721996982,-0.3630382481099488,-0.10896673129902398,0.9004139664393545,0.3932828554756803,0.48537090505470415,0.329388279258262,0.04815361303292599,-0.2402374673128705,0.23135000426545185,-0.08098492282132229,-0.23662891021568142,0.21918615091802005,0.41088396970981533,-0.19722514046847922,-1.104450544319878,-0.32103038500865183,0.10935900290067449,-0.649308398654631,-0.08335194086417407,0.9074679579331711,-1.1036261766314521,0.3444035890742918,-0.45205610013536635,-0.5518534301789413,1.0442056349949913,0.6259494272934919,-0.14241191801544756,-0.11662358888822616,0.17159614460442973,0.6113641962345348,0.8310095570405187,0.015682998191720046,-0.5859527203767402,-0.06550155900737707,-0.31374699045536847,0.021658713722082817,-0.9268328558802834,0.6161743004496727,0.8119889443568108,-0.19304016427053025,-0.30180595591370407,0.9280896611267911,-0.7318349911787109,-0.14507213304410924,-0.7388214656163418,0.7247083521559194,0.8587918719094962,0.6800391275778966,-0.28573539453346536,-0.7511148174270655,0.8613532621176921,-0.3831178972003595,0.030820969544048137,0.9242145519611946,0.7058473678243018,-0.08468352649228329,-0.9350617055661969,-0.9323973457365679,0.45149930656127013,-0.41206841033354036],[-0.27201030852870206]]}