{"weights":[[[-0.7011455093623955,-0.7238338738359217],[0.39590980396309344,0.7277748453555548],[0.42683277329142794,0.5404762563341766],[-0.6353034127322403,-0.13373006270413879],[0.06070753530628913,0.7160890677765593],[-0.3564080411140979,-0.20732196777346676],[0.2293351376035841,0.5300241531115711],[-0.4454707889944738,-0.24627363612352396],[-0.6780514857540234,-0.05395926776347167],[0.303175280025558,0.18443426945108807],[-0.14118441948333924,-0.1105089776041957],[-0.22724705304518375,-0.8812226031859629],[0.10584156125458842,-0.1528025040166957],[0.46017241702219475,0.11962409665622055],[0.02880274845694648,0.5726843776133113],[-0.2616473495745749,-0.3464761574226068],[-0.860232630368756,-0.2636568282140479],[0.3958695322073453,0.25265233518381724],[0.6612188636070109,0.6356312640297307],[0.22931818966817163,0.7530557541352867],[-0.6088684572843382,-0.42746406248806573],[-1.1704181299044785,-0.5364736650165504],[-0.4309913694137314,-0.5220778040612533],[0.20822564589192463,0.456420796769507],[-0.10847335993648441,-0.3928038054262271],[-0.8556474733110613,-0.3291892707807099],[-0.648282619019043,-0.2288841866082478],[0.7276774836534486,0.1643113519200634],[-0.07369482254587002,-0.15289002093823506],[0.3970107843283435,0.5923743836361002],[0.5083256993318834,0.1614317652444804],[-0.06712429202422131,-0.479146119986486],[-0.04044479603402453,-0.2960020014348662],[0.5164485065673587,0.392162910658103],[0.09878747895567486,-0.6871767190799638],[0.11378021870414227,0.8078276193288344],[-0.09445209789553641,0.27445572156830156],[0.225052153537704,0.1251967827274784],[1.0710458202471533,0.6526346989348968],[-0.9300115722255983,0.052581822565758385],[0.0816228318806284,0.09969381889058898],[-0.31252831985162155,-0.32162344249016317],[0.06391628148356615,0.3116051057436955],[0.6390347672410832,0.3772896411580931],[-0.47301620138960093,-0.5307996695223494],[-0.9583265499699911,-1.0443665931546928],[0.15590259222170588,-0.34748651225102056],[-0.7124410083471084,-0.7435199987177761],[0.6267852357305538,-0.26178925651637736],[0.15959542091027812,0.8508845941475095],[-0.2539062084792195,-0.5711664304690762],[0.515794729712056,0.36016322839029913],[-0.334997255241501,-0.04132969577616542],[0.42057231756424174,0.38432580702361596],[0.5906362327946476,0.45756482710578805],[0.2833135541242686,0.7919922652625033],[-0.8532727981886146,-0.7009688236548155],[-0.18854254454067743,-0.6966808269877469],[-0.18368014343014902,0.4629088460999568],[-0.043141814500904804,0.09490394543939398],[0.973162981773751,0.4995788225890562],[0.11620881026219974,-0.4391361546582326],[-0.26589728582523314,-0.24304201739927286],[0.3803711517970182,1.1224223837769691],[0.15365723905229217,0.3517824893411785],[0.4621735896880458,0.626377958041394],[0.6361790359732382,0.7280813190849348],[-0.8989307463294166,-0.5337782119460426],[0.03622374935674369,0.5277450109283814],[-0.7433420450784577,-0.25639007556990523],[-0.9546778573181046,-0.8327361123143121],[0.828182416760093,0.44088628299491855],[0.4904755682826446,0.2543508324574467],[0.11488627830913092,-0.138689113112768],[1.0237558134290352,0.8788954295463955],[-0.18102676850622518,-0.6379599458235007],[-0.42934543356179683,0.0006048189312244379],[0.5267731569868834,-0.17219212053324304],[-0.7135403602202565,-0.7153973571980887],[0.3830026089008293,0.6197394562357065],[-0.04033882248773325,0.9926566014899308],[-0.7048056303520339,-0.19155243707314767],[-0.28979223054793374,-0.18493579700172808],[-0.36917681660955637,-0.6113913258055126],[0.218724755637942,0.9282466202142567],[-0.5706394756379496,-0.7760582360398591],[-0.22322251858990236,-0.2763634003834117],[0.2360562804117779,0.11423376885357617],[-0.5118521913190477,-0.4712924335910955],[-0.9265386733504225,-0.4772643910698758],[-0.30257100143223453,-0.9741292725961059],[0.000656525382781123,-0.3657961696276511],[-0.3315626499740887,-0.7923023656808794],[0.8289877770517474,0.610385853252366],[-0.1493171953511194,-0.4148972102201327],[-0.3400471177052886,-0.37700631190428013],[-0.4887853702803966,-0.716489593251135],[-0.4636973584024791,-0.6860108811517545],[0.8338907653050616,0.33865027818321186],[-0.612808118259312,-0.07118982687557086],[-0.4512745973912156,-0.6613252927028819],[0.3185355875485392,0.16670341134104946],[-0.1324259363392995,0.3940475352316609],[-0.2994122339915506,-0.7717535155645735],[-0.10970004073713166,0.23408849174262775],[0.7638996072166684,0.7260827021422688],[-1.0468011315704389,-0.4967944023361737],[-0.09363398662125744,-0.25570823869964465],[-0.8879597576211746,-0.7538293909508862],[0.016419883271481514,0.075824293466022],[-0.49158623254629297,-0.22487863891046023],[-0.16077337055656368,-0.01855938745199931],[0.42042920799421707,0.24553834418170187],[-1.0469518713244466,-0.43503417046115245],[0.16523245330455974,0.5266527522433784],[0.533222896038957,0.49995608020628757],[0.20760360233776876,0.4082483184608787],[0.22522190622655908,-0.2580541600412514],[-0.26091448579874227,-1.0350015576828528],[0.37899377739606827,-0.4659474780966643],[-0.35542111658428743,-0.6240368854324156],[0.17512517792049284,0.6878464280501119],[0.4583974695311042,0.4092240344243375],[0.22834337856340445,0.26584476984984107],[-0.053190082476061336,0.5977931485322665],[-0.9030523396170285,-0.7915618015058749],[-1.0670503426659235,-0.3301242693259388],[0.8165446239639502,0.29612957253641065],[0.7677510143705193,0.8771627940858369],[-0.6987631631223045,-0.22045627632502535],[-0.39091656459768154,-0.6997403933365675],[-0.4181943227133264,-0.2893411375909203],[0.040841572441029636,-0.5273434484838754],[-0.3032022967661096,0.0991063708096788],[-0.2857358772639221,-1.0282336709456963],[-0.6063609353178371,-0.6717659386074458],[0.14139790625373036,0.2968240905288233],[0.40340512371112675,0.3686935264476029],[0.9886349241684955,-0.08011132796131706],[-0.705124656777191,-0.4357871202771808],[-0.04510230934691513,-0.09390234906605316],[-0.6190537531668575,-1.057188402091392],[-0.0906677974287256,-0.13103092056055335],[-0.4385291910406824,-0.04265730997247695],[-0.07371913645597304,-0.7221156525521427],[-0.1309761038571916,-1.0354408217747344],[0.6699993933537564,0.6455551876662224],[-0.9477624726899401,-0.3393972910543661],[-0.9000442098450495,-0.3510086709857723],[-1.1422740190624467,-0.2718827947397118],[-0.8519987231219295,-1.0274330817204982],[-0.25230646905248993,-0.6337929194156542],[-0.4116502515922401,0.15320464147973867],[-0.6135163066167129,-0.4721267308737673],[-1.0264449803672568,-0.08307229341820471],[-0.5227541763847117,0.09466225001059074],[0.8950507494974158,0.7414926769324715],[-0.8035296024062435,0.1836226960334694],[-0.2871091631948462,-0.362092752088438],[0.029585618432240415,-0.23160380560598176],[0.09301503489799129,0.44552196169748337],[-0.6985166652912812,0.024840267762956093],[-0.4633195356749139,-0.5044807522774715],[0.20348660493190218,-0.24090290214835444],[-0.04814388626144591,-0.26873832305481177],[0.2622461150279867,0.32456239621175437],[-0.8818336192169349,-0.7218367265905062],[-0.4093279903357839,-0.6198964726692572],[-0.1520155477921513,0.43618999482596504],[0.47983280285147645,0.6753776360753166],[-0.36029823443115955,-0.19372374613678117],[0.4906205744415907,0.52411021283994],[-0.6269537731947721,-0.37301317029240305],[0.6743962579269058,-0.05662918938169366],[0.8890525139323872,0.1959771999200025],[-0.2964981568731387,0.3975481707013202],[0.6541971815057461,0.36743954299816434],[0.4841059517486056,0.3872651276075514],[0.022484611643128156,-0.26986975210945274],[0.5561699390887684,0.09400792786882234],[-0.8042978530774855,-0.7354454132573836],[-0.3748830428679904,-0.654817833737166],[-0.43538472379325444,-0.7041022895847328],[0.6108439926241407,0.9484836307049022],[-1.0729450088844013,-1.1049073799968392],[1.0352008442164098,-0.0029573939273059824],[0.9533673083352988,0.07115718334898229],[-0.4871786940578807,-0.8473423905295818],[0.24358095817209616,0.9537085204710047],[0.7208213175363526,0.6277725216742602],[-0.2898053607347354,-0.6535340702900096],[-0.017252737478473154,0.24782836654867768],[0.34738019304599577,0.7538984101350548],[0.3828141645305766,0.5704421685824076],[0.8461453278048529,0.35196970259278115],[0.28153882324116236,0.30000261897010505],[0.20553938614379008,0.5037854203779776],[-0.7654409743476194,-0.6152626552307368],[-0.06323036826780465,0.7784766603985716],[-0.6660158136311591,-0.3041298322295662],[-0.9488191443212342,0.042342165375395126],[-0.7802377599957878,-0.6263843134843997],[-0.20706463211666706,-0.710106430609128],[-0.8220802263113132,-0.7323602900719006],[0.490148755853849,0.24509415646827343],[0.35195539271892734,0.018345873414983917],[0.34988928234759664,0.7922450661894237],[0.6915489527520348,0.7435025527067753],[-0.07011182131765353,-0.2062892043742253],[0.34064117645680814,0.38980440425207596],[-0.19127511370199404,0.06485099010413492],[0.24820502132786396,0.6096852218363213],[-0.6859819030493038,-0.7010476152131465],[-0.0862489316858942,-0.5062577146083272],[-0.02191776426870507,-0.37782964863906743],[0.8123979162345526,0.33236493998056066],[-1.1322103266743875,-0.9013868983517042],[-0.06976822586784412,-0.21741475293167153],[-0.5423414575951024,-0.38897758322739595],[0.9443884673820797,0.8312137681803508],[-0.8951909126298144,-0.24321980105781651],[0.12005379424475182,-0.7480320272444759],[0.2842059261411695,0.40035728097366613],[-0.8018278921489413,-0.8780389097977364],[0.04950894005935,0.2841599819040455],[0.2438579021453715,0.5509669373667663],[0.022667531211617405,0.9337804989096321],[-0.18894086255716158,0.5315319640701247],[-0.013120217351177464,0.09303102469360652],[0.5787109090707896,0.4411633694970277],[0.8444523721396228,0.7776025771282228],[-0.5582736076935138,-0.51670832051108],[-0.10283657203273602,-0.1481145247909559],[0.5096135195399863,0.9105302394525372],[0.4384879039350972,0.7058637770086772],[0.3046363781256224,0.7901528176853274],[1.1200757024658907,0.8186303766078686],[0.037561224615075446,0.6838827506545537],[-0.024154640202215735,-0.7379518978701799],[-0.01069276890920965,-0.15135901059399015],[-0.07606120945107404,0.11891304148618899],[0.5200500319913088,0.3932503878096719],[0.6581568850772089,0.16673533855131015],[-0.5399743502601243,-0.7028130573379355],[-0.2813347209994508,0.2759234695918571],[-0.3987304345849354,-0.4771662940814086],[0.20143241231614528,0.6478669364901],[-0.6917616685099821,-0.5432313659524222],[0.46923499315010936,-0.21723292960474044],[0.03958568079127032,0.356228364861913],[0.09229677380041354,0.32979769228039885],[-0.38573148475261915,-0.6509419737406384],[0.048412173212872,-0.5468275306848729],[0.03607536736304568,0.8734677673709759],[0.633196080169678,-0.13663821566789583],[-0.07226524108514268,-0.02316797754765306],[0.5521752792963206,0.11716360439607626],[0.24156781308696237,0.40161623424795484],[-0.500987721469661,-0.11507071879563933],[-0.024252513728243472,0.15992352164390045],[-0.04545110343660261,0.1681594456092108],[-1.011786816306241,-1.0619183600652962],[-0.15023322334225647,-0.04746401608982042],[-0.5443988220439296,-0.2950678080793451],[0.6209877610119724,0.8559996004273697],[0.4708082766688958,1.0868629889207113],[0.09199533797510295,-0.3014612925565136],[0.07069384373613284,-0.33135761496824123],[-0.7501807333147948,-0.6265931898323835],[0.587369732290375,0.5532947717947995],[0.16571652414813426,-0.1977018385316176],[0.19882161199710544,-0.1520977790312228],[-0.4219030973898335,0.21860973168174683],[-0.40685189692556334,-0.2948124764587883],[0.4010251206760355,0.8238047562238532],[-0.07158742381576082,0.3089817952344585],[0.01736663789990134,0.5296322783593485],[0.37230479559670004,0.6117276466215521],[0.4742774271247306,0.4532805316045157],[0.7956797641733752,0.5079251900065921],[0.33394727239798255,0.6306535352309138],[-0.03733535228385126,0.013653966322104314],[0.180021826830243,0.8764467866027381],[0.7463290282242006,0.5016694879972189],[0.15490087564790156,-0.2749275815871965],[-0.6673121052376626,-0.7028462797539649],[-0.05074951426969249,-0.6845464444565015],[0.3806456795691255,0.4186996006445579],[-0.03212009183966607,-0.007869358564375286],[-0.7781567462958316,-0.4843807299659404],[-0.6625762341733094,-0.4361714931182131],[-0.08710759916162061,-0.3765152814494451],[0.6412458956176994,0.46881472324711626],[0.46726502684342325,-0.14895695827320274],[-0.12071786250383194,0.8256196751915359],[0.8303942430308432,0.8634189911389443],[0.3997414195468822,0.35565993504617144],[0.11409455769794125,-0.038309295492578256],[-0.3698544649942549,-0.15855645684082445],[-0.6028492937982037,-0.04998006919458587]],[[-0.5357188580728791,0.3797141137570962,0.2703420833199928,-0.33359895425451785,0.26925778386761035,-0.35011081444869996,0.21313757873068714,-0.21580337927960555,-0.218882206546653,-0.03952545989346764,-0.08216983984135928,-0.36026591630362725,-0.024342998084483647,0.2092800554060642,0.1384936441212224,-0.1866386677750056,-0.4703870961296234,-0.051836148541170406,0.48668109986773933,0.2837649078226917,-0.20075686534675763,-0.5678533791449518,-0.0879404871718106,0.3032123114766335,-0.10436459414551819,-0.44232720391971597,-0.28581389715486955,0.3930947535419764,0.05178761730599221,0.3636953394219065,0.13647945967147124,-0.14844984999862054,-0.08106918613473914,0.14378160410133237,-0.1620070930812887,0.38053273842180074,-0.10153356433381941,0.19620857913903275,0.5756262930887488,-0.28132265704823095,-0.040834155513705644,-0.16334751707302742,0.09962415074172885,0.4000089615380585,-0.46918062429607205,-0.6515021348160438,-0.06414705135492008,-0.33058284719066894,0.1329391205817439,0.3048648930339201,-0.4780831856295579,0.15259017705417002,-0.1701527831090527,0.20026484675819042,0.27490448310947707,0.300432731438096,-0.6147305704014797,-0.36142955275875216,0.15920118435882305,-0.2282782012354596,0.5647820029754896,-0.1933453245521079,-0.21156074366742367,0.5055019695317203,0.2818312871694391,0.15918612400982649,0.384427877912211,-0.580271343323232,0.28432296274985663,-0.3954010414385268,-0.6565084251672236,0.47176511337231675,0.2623919973047207,0.11129715248377509,0.6449193717616789,-0.20855534741573126,-0.026514181820804415,0.19034009422031656,-0.4133608747618,0.4133515742935044,0.3808197192556794,-0.3831392527956337,-0.08867796173246438,-0.4480399453967844,0.43846383296722913,-0.31854203828325517,-0.25798198060787775,0.21854185584866365,-0.429418571044609,-0.4698367716367079,-0.5252044814719417,-0.046791487956430726,-0.47406773232332167,0.3804365486386091,-0.2621791195665722,-0.21065395672965348,-0.48401508418065803,-0.4818696161156826,0.44289539026969243,-0.165327070680907,-0.273737779154878,0.13073075099716894,0.11999052299400682,-0.24075769443819456,-0.14739786664649376,0.5275968865633944,-0.5937897881669032,-0.14426946735832638,-0.5794608205658647,-0.2751093616576353,-0.35155264139240866,0.11178155477927465,0.21078029674466262,-0.5119286158138293,0.16378168410957872,0.368888599766403,0.14471997797113603,-0.13497097940642586,-0.468351706788287,-0.05042609779456206,-0.158111070908237,0.4366005794719537,0.44517344295020755,0.08624051732947667,0.16210994685876395,-0.6334028101459955,-0.5385751769187307,0.30349066070229125,0.5968657664562275,-0.45326124106256516,-0.32865864415605633,-0.2491676956351535,-0.24646226533828441,0.029281162856379443,-0.48539817952969133,-0.2820241050528413,0.369065804518891,0.3536396688536171,0.35356286434929096,-0.4024982397860972,0.31597877780331474,-0.6396932887018655,-0.19612064049475092,-0.23464191813192817,-0.35010548921072265,-0.4910074189527072,0.5054969360147415,-0.48623438605849173,-0.3462376641988818,-0.5741908785991641,-0.6583474555974898,-0.3991021042759529,-0.20684511272708675,-0.25223394452293163,-0.4917899931607722,-0.1980180920325627,0.5528261065907651,-0.24399680556259054,-0.3390245676732959,-0.15978510700528165,0.2292116379827289,-0.18840303652590654,-0.4329264783134699,0.16284539165216563,0.1127022464467474,0.15184561287746287,-0.4975597685923766,-0.1840509186814893,0.06645718047796213,0.27737782229361113,-0.16746012612988304,0.09220742699589285,-0.2120565882585545,0.21388161487968263,0.33735640490311936,-0.016357604719029684,0.3637942834254866,0.21161288145512658,0.10029795921317487,0.3517566518494514,-0.5916269868225889,-0.23366538966660239,-0.4882280844617645,0.4956675719914675,-0.6975810381268989,0.45218218825565853,0.3306064140352473,-0.5631914816012537,0.4639424796606077,0.523333802272509,-0.4891571443628586,0.05062370919232829,0.47368900332954406,0.4404337371614529,0.358222739320791,-0.09943302971199446,0.39661862366484696,-0.3016395472570966,0.23782626480170335,-0.17382605451056016,-0.3346730982330783,-0.4955374188045903,-0.20969080779583382,-0.4812307784387951,0.41741101246320406,0.20985310745493607,0.31779968319809787,0.5892647270851674,0.27109095252656396,0.33799932096047425,-0.25955104259143996,0.35547227681211013,-0.31877439852844663,-0.1722287871576484,-0.1181844723933292,0.468873315012442,-0.6503738606656203,0.10081711333964999,-0.2623793860008525,0.5718627098780124,-0.372711854603162,-0.2326839466920221,0.13747762229978885,-0.5781476856017173,0.29472113569730535,0.4106227070104627,0.3305650986140098,0.1731176771400055,-0.2932857256619663,0.2871399481581221,0.6177001337233726,-0.3304811345138035,-0.054412927415868916,0.45757643313130153,0.23744052057921616,0.40322879812598766,0.6483925190287283,0.32285157754656624,-0.18852020686406223,-0.2293363709945305,0.02997913570856995,0.26845974234752457,0.3990796212615182,-0.4504461863923489,0.06090948431898931,-0.3013760913669577,0.27967531848414995,-0.5015245745361904,0.09765430032874052,-0.09826774208365231,0.13068967454022762,-0.3780480406203714,-0.10624502928305414,0.42242480974402796,0.2124712238991943,-0.3400115764373572,0.3526661100526264,0.34944695935893105,-0.3312033362552957,0.04275169479437751,-0.25345875990485084,-0.6619499753005367,-0.11936147394923348,-0.36825782213554137,0.469958057711436,0.5209330165537869,-0.017034050648641153,-0.1443531670502284,-0.32871758182354677,0.26512129149027586,0.11082485370299971,0.14737110077766682,-0.026167724629627374,-0.21799070957215186,0.27202503368696174,0.145834851408604,0.3179490207133291,0.17948652787569208,0.2889430543058866,0.48860818310406867,0.40560322375520175,0.17543628477842801,0.3495775052584082,0.39513778290203233,-0.050091276823130665,-0.5031335580040571,-0.37513488205560047,0.20971115375649002,0.12708947156939615,-0.5280525441303087,-0.23047689959833995,-0.2463043462374418,0.23377555927625804,0.18352509890327479,0.28295740304278183,0.5503704063586179,0.2848600681392648,0.15539584493143366,-0.3288325229651542,-0.12886869017837074]]],"biases":[[1.0816331924207006,-0.35947881600750464,0.0068384672024179305,0.5618764188544594,-0.3633454829118097,0.1377264093502467,0.16371881296350727,-0.16413706236766126,0.057662347375491606,0.07596201247336702,0.3041175246689874,0.7641429155946754,0.14106256429113948,-0.6485049715173362,-0.3119239386252194,0.12568134535740083,0.9484488349700331,0.41339070683232737,-1.0829128627820286,-0.5625821442502215,-0.12289137049364213,1.2040139936270982,0.3059889277150693,-0.3580041188125004,0.43249509798177105,0.8895224638136081,0.014730825989406188,-0.3206766087882738,-0.2976036221535585,-0.7709088325113747,-0.06590510203797299,-0.3458503750897893,0.19357755519642522,-0.581003498198227,0.06586397243183638,-0.23595445674684615,0.26861880367284213,0.10009486562972954,-1.2483479183536454,0.2215348926279582,0.4251460552612979,0.28877828224563873,-0.5527932311715552,-0.44086448936792194,0.9116013311597857,1.4629373701796027,0.35185545775503935,0.9031678169767894,-0.4461146745917403,-0.18893605321984425,0.7114066886668603,-0.5370538267207292,0.34286287516207153,0.22785207177630742,-0.3985300025011739,-0.5808109704611857,0.9599500563904716,0.7948468499299285,-0.20805777363507263,-0.1219867227163226,-0.9821225908643386,0.24612489961830525,-0.14062188564390307,-1.117786558618115,-0.4391938918127426,-0.4934381335010918,-0.8683360827546136,0.8428900595345776,-0.1697124168071379,0.6461940018147996,1.2330276409933674,-0.596156598054916,-0.2909605470973213,0.18890827383124847,-1.3611105218138821,0.38719815251311623,-0.44446757971873196,0.13598006129052673,1.0190812691015578,-0.6830077069184876,-0.22906135627263496,0.5695317449967794,-0.3834494351445414,0.860341807967005,-0.8343618226894022,0.8284235668367548,0.4428193803437835,-0.6678070807870845,0.8320443932103174,1.03770145347493,0.7798197971686184,-0.06012364326177061,0.64021159909094,-1.0294553758103544,0.5370762161418217,-0.09741101073874535,0.6670930925735497,0.7296388573239352,-1.0185331853336625,0.29387122369616114,0.49409403076010766,-0.40981111829644695,-0.34117590163592587,0.5794927723060598,0.6111258003775206,-1.0975155623277641,0.9474793065783261,0.4033926863932359,1.0366281570661755,0.2947140130353155,0.8222013712381866,-0.30037983804197427,0.20061770383171398,1.051574133207537,-0.26710456654183345,-0.6781272862541967,-0.11347656008766686,0.07118578181070888,0.759456855135433,-0.4458873597227997,0.0660598096720415,-0.453616247519687,-1.0957346227886096,-0.05236875815295807,-0.1843433214933893,1.1562130369010974,1.0099446319013772,-0.24580641402386572,-1.1326924354394314,0.6089820491116122,0.07829065123347782,0.6054843163799185,0.1357225734951153,-0.24218112435909742,0.7459119569988265,0.606789243961969,-0.28776606336941846,-0.5805982823123172,-0.03939798522096542,0.6623546597162892,-0.4291451639989186,1.1294915371194458,-0.028774264112189182,0.16258251317570363,0.07546163390364219,0.6000733688903336,-1.1259117167790722,0.9849112410000495,0.692509521214494,0.84998434784193,1.3487697236831948,1.0155451728419858,-0.09770961880891364,0.27757822980083746,0.4441181358475271,-0.1214836149374749,-1.1809676714687982,-0.11974387719598581,0.7431728799179008,0.04506260056496798,-0.13992100127711266,0.16476005649489178,0.3224107215342233,0.1454047175502051,-0.010927765485174979,-0.564695806243635,1.0078962636403448,0.4527630425606725,-0.1953692962047385,-0.35832647675077656,0.4662120941840961,-0.22441154739657868,0.6010057983703027,-0.428989663570717,-0.38285345154059625,-0.3116383642088977,-0.5768074162117919,-0.6110681328845619,0.10163874850032197,-0.8185377565387516,0.9045364186001394,0.604218723940726,0.9865456701469619,-1.0301984235502644,1.6265449776435448,-0.3570011129764347,-0.34404771320579586,0.7933941418211835,-0.8159145310518111,-0.7554816023858032,0.4784761297924566,-0.10506486880360007,-0.5720290620939903,-0.7550100998585971,-0.6725902112906356,-0.0084671797224811,-0.7446905821230169,0.7467947052505751,0.11571369461494246,0.2985094612587858,0.2199948831547793,0.9892168748693282,0.5510751543687906,0.9389198530216974,-0.807131643107299,0.09252657239125822,-0.23528979354974194,-0.811063370028115,-0.8029326301885517,-0.7037210660434381,0.2929716435449369,-0.8823949679863224,0.6668200106631933,-0.01947897085788574,0.0757575759585605,-0.9152254279913131,1.4844805653651059,0.17921901658178682,-0.12563990576985162,-1.261376370155942,0.5708336587892282,-0.10132882443445122,-0.4094086182985025,1.112871970789344,-0.7070588633815588,-0.2701205910616493,-0.25397570319670126,0.2206127824002055,0.4118593361302334,-0.739962478625023,-1.08343754003034,0.13539395950007083,-0.2294870570707789,-1.1031203294731107,-0.5065974692597404,-0.899148537997152,-1.4124305719314065,-0.23186514562206148,0.541774176530408,-0.1294492450720958,0.30397117866798007,-0.4391011565233204,-0.711375710244675,0.7055355355114621,0.2045284724180882,0.7446481911821966,-0.38788208963938425,0.9538636139887137,-0.16427679845029164,0.2758540447404281,-0.37629072612532344,0.8571832839464114,-0.3086000549840933,-0.25182863624882373,0.03997069990007717,0.42569249587927904,-0.8401013602356445,-0.32817267611456147,0.13875354305781135,-0.21067845036394925,0.6416344329367819,1.5477719097394638,-0.03572141347454515,0.8804492034896036,-1.0232311894913806,-1.1507580267659299,0.020073233915824464,0.09858928405884716,0.8041595507382221,-0.6939252728466482,-0.450328221445734,-0.24392702861350002,-0.036331761744235934,0.4440500935704089,-0.7466712586080408,-0.5721343311636771,0.027207080401499592,-0.10857564126416246,-0.18096300553957678,-0.927138679530234,-0.7265979255242838,0.20873533835952987,-0.546766791121145,-0.5012368697588816,-0.17836482781158897,1.1889198524535942,0.2257583930428478,0.13886438329789863,0.10355233807503551,0.9673867078770987,0.6843836793714303,0.6386765486051857,-0.41450721866540025,-0.6328188839393085,0.09547746177399903,-1.2883456940901967,-0.34601450597361105,-0.4283203592185638,0.6665404688556155,0.4658663185085715],[-0.4248380265399703]]}