{"metaData":{"sizes":[2,300,1],"learningRate":0.1,"epochs":10000,"trainingName":"OR_TRAINING","errorThreshold":0.001},"weights":[[[0.2219608349425986,0.770097732600654],[0.09040544661452912,0.9038285254636467],[-0.7840799185569219,-0.7309793347187733],[0.18252232061046486,-0.09255850341065841],[0.7636218604078442,1.0866965663985335],[0.47231329734430166,-0.3151467264443841],[-0.4273112637019833,-0.38160055545513943],[0.4155250241890967,0.3103336188470035],[-0.34327935400669896,-0.41255824383229],[0.7167245622131164,0.5390026232805762],[-0.5249568147202128,-0.5568310512934691],[0.606308790290873,0.6679781109390162],[-0.19643678265085882,0.35344270292615476],[0.20589910192078295,-0.057990561125335606],[-0.27096738375885193,0.29948965245255194],[-0.4367869470279265,-0.8443378852271325],[0.5395409772862199,0.9670170190720514],[0.492759149349883,-0.0858416030522341],[-0.7991762159045175,-0.6067427136932256],[-0.6981315382207998,-1.0818001289641666],[-0.9411547787480328,-0.9781117894827938],[0.5622697590572449,0.46382505469209845],[0.6000610021559737,0.22861682167043745],[0.830590979959162,0.7487126034079828],[0.8470481365648124,0.6539606629452761],[-0.31924159807999225,0.12935181727645031],[-0.5224117985191136,-0.6402072341146716],[-0.4657299242781913,0.32176606116686496],[0.48368305111571824,-0.3186003283952481],[-0.44060761469157056,0.3176296195715534],[-0.322051771572186,-0.3419818110524018],[1.1756917823184416,1.0269898362602587],[-0.6020423255194137,-0.604433266478745],[0.2746442738289259,0.5039901359051422],[-0.7490660194678036,-0.5081023136096596],[0.08792290085883679,0.4494837445361666],[0.2885344880121729,0.19172650313315198],[-1.390719618948884,-1.2924535352418265],[0.40148102054137846,0.18632030129697152],[-0.7003349259450158,-0.7316501617585321],[-0.8214921757388153,-0.9150453966819613],[-0.9030963240760682,-0.8009700451821046],[0.46688678127873673,0.13125290142051166],[-0.9445723281230497,-0.6910462448752119],[-0.33945344065504035,-0.9061785887068565],[0.31978665849919746,-0.09559110409463907],[0.03011863996251769,0.04604287269880197],[-0.21308872090022354,-0.3888884371460598],[-0.4937945568071303,-0.22573151923100968],[-0.0764681752462736,-0.11823525716696251],[0.6044226495659853,0.5702976292251871],[-0.45955991972559934,-0.7271231607010414],[0.6158854772376858,0.08798996359064667],[0.8194421614677662,-0.17312021932185817],[-0.6029425721691296,-0.22057027169703194],[0.7609607239750611,0.4505567152630954],[-1.3131936429648419,-0.8676504248075062],[-0.011484324464899285,-0.4649086456062451],[-0.2979172368839615,0.4718388616096182],[-1.3261868909108463,-0.8134984089602175],[-0.1427746832957327,0.011247660705020902],[-0.15794438081038653,0.35073923008735913],[0.68478262340279,0.7212415383821954],[-0.15324501941612179,-0.15267137908566555],[0.0782645877598827,0.2860978849346668],[-0.9152960820640003,-0.18608240920069632],[0.2557638690106982,-0.33326824778084047],[0.682457940890148,0.44554723262674106],[-0.7232595992022086,-0.8315717948405104],[-1.2618971974122586,-1.2799498315262074],[-1.033722990837386,-1.0179895076175753],[0.5973060993725733,0.6347156968933287],[-0.6182317692121676,-0.8129323779384556],[0.6762057454767972,0.046115015431831004],[0.43194250226048053,0.6212878704603737],[-0.7505123392840165,-0.33926798929485996],[-0.5972267363490226,-0.18312924839560313],[-0.6498231385697769,-0.08982967385022574],[0.6477224210777173,-0.14333752613789755],[0.5480083609873402,0.14666979632576507],[-1.3350933904568125,-1.374270538436301],[0.37248243092292904,0.44054186857335786],[-0.44621142767235594,-0.01330492940861866],[0.2943514715353725,-0.12964397262813349],[-0.32852127753754023,-0.5539368537739086],[-0.7356129069845533,-0.417790787971482],[-0.8752859045000966,-0.569008411886736],[0.3241090557767439,-0.2957947353455315],[-1.1534044252010573,-0.4537576208740221],[-0.9018125422133529,-1.3261005748842243],[-1.0228365572695257,-1.0134411016160128],[-0.2871565591938899,0.14161388290815957],[-0.21503034762869624,0.41433762173137045],[0.20604859716539703,0.9393145123967335],[-0.030989922509209285,0.6437526219497791],[0.30178660849658445,-0.3918399262132931],[-0.7290327923109453,-1.2677797814733727],[0.22119140532414702,0.3029741212866082],[0.465106166341656,0.13332546726352326],[0.5236725313365785,0.2056256790561956],[-0.1347076828628438,-0.3627427849630407],[0.26401155730806936,0.8410385943840131],[0.24829358868879173,0.3035511191291727],[0.707417323691643,0.5926064160333449],[-0.4937274207636863,-0.12754838136301297],[0.5252795850450875,0.7016665314314388],[0.7243929008606887,0.332728413822985],[1.087018043061765,1.1439523617265417],[-0.6847787602447298,-0.2619701006030124],[-0.9104697409573388,-0.5893154335250813],[-0.7471434667593662,-0.9090885720934548],[1.0904111171175557,0.9033297993250508],[0.7861981070637309,0.10987018504544574],[0.4820682925101889,0.5308923254405634],[-0.793548381632426,-0.4751006144645238],[0.18275008192970077,0.0333928372882731],[-0.03997902225298025,-0.2750763554327505],[-0.20693685246384155,-0.686439997777046],[0.8049556545581412,0.978713341024765],[0.7151669943231775,0.4228131794442455],[-0.4514589310741154,-0.6548225984921893],[0.13632719158952325,0.21834503531384372],[0.3032306671801331,0.1378231913475271],[0.612337156527096,-0.22144587986169487],[0.8142087469727485,1.234359714510142],[-0.07181368514683044,0.6233691656249596],[0.03547832801350879,0.1419533976095916],[0.06128182368338758,-0.29396744014666515],[0.5597727440101146,-0.004043974996872174],[0.08119962987122892,0.5102362957701718],[-0.6594186387125512,-0.23469505768491758],[-0.7648988799490208,-0.837191552186545],[0.8468215474399656,1.0296991023589759],[0.20134141404469108,0.34757619905835],[0.6614803397697959,1.1276841301646339],[0.10189950230145813,0.9988519770199401],[-0.2116819948480004,-0.6729000839630634],[0.3043969697826505,0.21568291423995578],[-1.0794866817248159,-1.2316187572985846],[-0.8223726837478639,-0.2887253750923822],[0.5841199909003097,1.318159411035452],[-0.02566827103336932,0.40193376375854645],[0.020545130394365164,0.11698853400180508],[-0.5437284859455369,-0.8757115132759984],[0.8863987978019919,0.9117645024485117],[-0.5230095904326881,-0.09911619040130479],[0.1959116417026479,0.19178873749038847],[0.032161994842400274,-0.14481240188476646],[-0.05518464220442808,-0.26155177699039794],[-0.055509986857400724,0.004233495684040642],[-0.18994899434337273,-0.21850426318930466],[0.40334144317187204,0.6625746748748842],[0.8000880080246364,0.17159072321722466],[0.17281449843887625,0.035407586188571975],[-0.2665773290133543,0.46798630766195826],[-0.493345131615378,-0.6326857144183109],[-0.9400130601959847,-0.71752855823085],[-0.141358528411469,0.5714864823013768],[-0.7555895895479037,-0.9345798012027747],[-0.7235418428168603,-0.22165806803539448],[1.2639785659636802,0.9118741590860766],[-0.44505538237910197,-0.7290885564227784],[0.2912547062684448,-0.09296554765297874],[0.062158796982202155,0.7663038472221495],[1.114063436332539,1.1641028827000266],[0.2079095410938203,0.013714055934799888],[-0.7085519512538588,-0.6534878447126303],[0.5645221376960161,0.2932117591766974],[-0.5160276875603353,-0.6905661489436921],[-0.7554345739465717,-1.0772098778177055],[0.5112661815296167,0.07509863532504898],[-0.2368805020285524,-0.14400937023532898],[-0.16953349633258447,-0.015605804471320988],[0.8874960180338138,1.0105574843343699],[-0.3366790412855338,-0.138349437348548],[0.24868424916683984,1.0957915938879452],[-0.5317386110255226,-1.0005610706302945],[0.6142118186660435,0.46823827340053614],[0.2270974534466469,-0.08704751265381848],[-0.4125871558010069,0.23428219493890337],[-0.0875871289813711,-0.6593282787200117],[-1.239402711400964,-0.8458813904101954],[-1.2151635025740817,-1.1475772412489038],[-0.011745322407321294,-0.6122919348844477],[0.042369997600240135,-0.2599474284688177],[0.6958509338527421,0.06055095358031048],[-0.18610026186375897,-0.8484698307099939],[0.49573326302015736,-0.07202627200678326],[-0.8028783584351257,-1.0670998995908603],[-0.505545892723202,-0.5712056310718305],[0.8833897517405601,0.7183062541189777],[-0.8417704564628343,-0.8735985726646819],[0.3503538471405795,0.1258066133448636],[0.7378026670334988,0.9035391460828606],[0.7998223197368075,0.7410740646400578],[-0.4953889411468622,-0.4475786770544189],[-0.36122973167724637,-0.3597467244216645],[-0.1941605618722295,-0.39900043866621226],[0.4118093370096226,0.34780688560998624],[-0.38112620099479877,-0.5714353856406726],[-0.2910964612240816,0.4496784805168039],[0.8644521668832081,1.0624051013678089],[-0.20687647187663713,0.47791225652341945],[0.20782724144784742,-0.27794295021775434],[-0.8735714405943472,-0.8640193420654103],[-0.37275011919872153,-0.4249776766946789],[-0.2610723160229617,0.38010524441482296],[1.126724913986131,0.492975950452738],[-0.5783249425405846,-0.8086118660842759],[-0.7359272277410134,-0.12163785375685034],[-0.143354654208078,0.7217391646652302],[-0.10154741641562694,0.2641593164387336],[0.04028147055109764,-0.09326688458933337],[-0.4112272862435376,-0.3530789069368772],[-0.4722058224172973,-0.4682705069923986],[0.8778205642846412,1.1043419832138524],[-0.1748484826472306,-0.12296919265139904],[-0.6429130995604372,-0.5338827149076716],[0.30785661411179477,0.28024011619042516],[0.07794902644221201,-0.05997703880234779],[-0.11426666427078495,-0.48087261123947245],[-0.29649584050052535,-0.2820342554020251],[-1.0430771578244122,-1.0470986488562326],[1.2397515425175658,1.1537512700783659],[0.10963136790067327,0.3111349243906608],[-0.961602004199553,-0.4384421965602743],[0.5043989260912629,-0.19259636865477614],[0.05931008200809668,-0.36825512756871553],[0.018042663202819723,-0.3887604572184819],[1.2914850527479373,0.606151863228357],[0.5186790673588345,0.7280398591722184],[-0.6142038976359769,-0.6255089938210403],[-0.246642022624534,-0.33554405831385575],[0.9130557466966482,0.8229655679605936],[0.8190555244499448,1.0080877372232635],[-0.4302675666263945,-0.4882702974680816],[-0.20546833949623283,-0.48746546811299823],[1.2976672329298204,0.6561649337310907],[-0.5198788307548875,0.06581097838371132],[0.9400097282811967,0.46640722393815953],[-0.6344166840702895,-0.29622134417299073],[0.5957998943166579,0.4649525213160343],[0.3170398198786875,-0.11463742230199211],[-0.5209036067900049,0.10193129329411807],[-0.16160844428726476,-0.6790309633973705],[0.16275860670463352,-0.03731962432754982],[0.31100337516716486,0.5102941790402256],[0.689088621596311,0.33608951577856727],[0.13963223368094999,0.7857058104373075],[-0.655243198841743,-0.09225749368269812],[0.366747572273389,0.33134031641971806],[-0.6133359434344996,-0.3073539901112862],[-1.1276816916329617,-1.0570375072223124],[0.050278138655748365,-0.32048966143480023],[-0.9758545880704463,-0.9876028841074677],[-0.18446993397300762,-0.052285660306356195],[-1.0344119331231292,-1.1143197958935147],[-0.15770972443978598,0.019477201066786076],[0.48654370006202813,0.6824738861902194],[-0.894934915832824,-1.1097992585235275],[-0.4208925619888602,-0.6865810538567916],[1.086876524125971,0.898812115854773],[-0.32106072746907743,-0.5124113289318726],[-0.6166858316930419,-0.45278201050747474],[-0.12851171758131152,0.30880340892268426],[-0.9312027592782016,-0.4472201609326467],[-0.858219071466578,-1.011651534961685],[0.41914087157350094,0.5375701601537318],[-0.5064407527358746,0.07513191389455885],[-0.8553300459703862,-0.7608532568467364],[-1.0065297314311745,-0.8636096887054688],[0.3687035167405701,0.41342274846986454],[-0.40650722614989365,-0.010820718788658966],[0.08644511293609324,0.021338166550355652],[-0.48433120520394496,-1.1083284156408315],[0.30178278077384624,0.03528776146403562],[0.8970562294283724,0.5002815053269337],[0.7653073997737591,0.7579595429946882],[-0.009001570606418026,0.3362613402646602],[-0.8255974353874099,-0.08894059894428831],[0.3247323608161654,0.6433246050777737],[0.4624812865267423,0.6893382875905808],[-1.1816707708667569,-1.0214820491094048],[0.4243307750273715,0.5053817518393369],[0.47609449936126863,0.45327840082788856],[0.1987865999395922,0.4828020830750179],[0.7027184488623232,0.3315709171628641],[-0.32153768417272743,-0.6368128676006538],[0.3629729746951154,0.5297129711389063],[0.43040102003106523,0.4516761606943358],[-0.27736354511672906,0.11625944406765698],[0.032584636499846914,-0.2897447998102348],[0.3722673891591246,0.028303276920780034],[0.07002071834061138,0.07091424972122372],[-1.0498004580672782,-1.0174905292846603],[-0.3086845790824065,-0.1552527955723963],[-0.3695183913568593,-0.5287864396302091],[-1.0274912799650642,-0.6391105030785764],[0.04564320799232614,0.3713030331907817],[-0.8518626213963102,-1.1532627321278663]],[[0.3042010437687846,0.25634831262833185,-0.3587312458818905,-0.037174347636207535,0.44103229783032954,0.12508014064272036,-0.02727606919533606,0.30588229740974454,-0.19507544396354232,0.3020479147421368,-0.46601587376540543,0.40592860513725315,0.1188691431863054,0.20435430915516586,-0.06493745176441851,-0.3240051152874756,0.40679742146518444,0.07418856959399985,-0.49427339549415145,-0.3945507065316834,-0.44399751182442726,0.09685048426546781,0.10211674623910198,0.34473646770548017,0.3310455274395711,-0.14215305629867572,-0.28784747815936845,-0.07568325575019702,-0.026718091634052903,-0.06022572180803374,0.025725656460201512,0.4461241054712104,-0.36688737500840823,0.22186012454426493,-0.25083603145083794,0.24613194916699754,0.2255256757615577,-0.6256010553485448,0.08336104567130911,-0.39398144137308555,-0.41902361341976835,-0.3936934064622659,0.3026790630146789,-0.4150959320168692,-0.3125379236321542,0.05663269588721239,0.10207024535710717,-0.13180511669665423,-0.3397084755162148,0.10790849898245407,0.33302743635388404,-0.46484405047902166,0.17496918238497428,0.21142968708827845,-0.22769308499580843,0.3509915315872129,-0.5896370957050135,-0.15464048670686514,0.09496411401920418,-0.5687320866623193,-0.15676926019308707,-0.07936429242702431,0.22478802392822778,-0.3217712836794002,-0.1228122562373143,-0.37699219099634,-0.07933910495936429,0.3033373673921522,-0.34275644916251524,-0.5420107532830704,-0.5501293735260046,0.2180473437896513,-0.32638152771659057,0.1892701939625324,0.32935377133026267,-0.34006765295042424,-0.3545788222230636,-0.27040240339391736,0.17633587683923826,0.2824680061484794,-0.6483389757669205,0.09130457102100512,-0.0891693939567051,0.10571315513508153,-0.2020377953700912,-0.30546711100526386,-0.4195003250381555,0.028606451800802894,-0.4205653223622474,-0.5441314532491277,-0.5662958927916292,-0.06016001493274445,0.1214251280161887,0.3192357435660583,0.20129602590038204,-0.15042528084103934,-0.4763563845549591,-0.07643922670258416,-0.022049351421134487,0.09254244527874778,-0.18801925239105835,0.344701824345944,0.12316045408358745,0.3310715879673585,-0.29520600927045415,0.3152314189674149,0.2613560200537861,0.4857075789955698,-0.40256680072528445,-0.5099421263644579,-0.4978294152425744,0.4099343769039819,0.2652727097951588,0.058130925641787755,-0.31171671924610733,-0.12748620331524171,-0.026301161595494314,-0.24028078257373614,0.4655485685055073,0.2959799745373375,-0.29403286146105795,0.1929502845869905,0.0704201251123561,0.11150523329688922,0.455453019539198,0.20313374712802462,0.226296960232773,-0.19109128184415874,0.097636218925238,0.2047679424521035,-0.17729028786004597,-0.5385290643522412,0.4096133613884472,0.0790384714706984,0.4010435180008123,0.32110042444540465,-0.35533795385264083,0.25393522412505987,-0.4815302598649711,-0.3107317217417081,0.4768059034333429,0.10305332275391496,0.19313238245869035,-0.3026653988357678,0.48674905863346885,-0.09512153026215193,-0.097276501012824,-0.014397452696737305,-0.29166736099596074,-0.27570243438610215,-0.062098939017569084,0.35459747611242654,0.23961248452430342,0.08845804736592737,0.06132735828456752,-0.2065944835483479,-0.43380794681821183,0.19790644203557642,-0.4727694364138648,-0.39778237328510097,0.46023248663561755,-0.3920972002087012,-0.08561998978782068,0.21417559796919752,0.4748384856038833,0.23455769962080683,-0.4352579317415182,0.2841252588729888,-0.39478700192773875,-0.4221101760534495,0.14112279656297141,-0.0358698898737041,-0.22156527163956352,0.4502839131053744,-0.26781875305693587,0.3828706835587251,-0.4287452564525069,0.16861488049856818,-0.11122033519042285,-0.15431573113733496,-0.2736199780077113,-0.5632507182421408,-0.5461743957262443,-0.1942311029073981,-0.04298332971629104,0.17223324993877326,-0.3434150365928559,0.1571875481451852,-0.5664337110124873,-0.41328848003514507,0.3733433615982914,-0.5262013320668967,0.1957240916945258,0.40414620999837164,0.34087337447327,-0.09831106659064696,-0.024532186774624463,-0.0034937606715874665,-0.016996473346798015,-0.2241231770436359,0.04752026885231074,0.5062451585247133,-0.033690220245263844,0.07650335049735751,-0.4983772237767624,-0.3538968654102901,0.05294305725107701,0.4145895866468043,-0.5022502163007038,-0.2521974696628937,0.20932289685088892,0.2016482946197589,-0.15162400802318607,-0.17612124921830974,-0.3847478743553077,0.49026409289760764,0.08594292430219201,-0.47545195610098656,0.09919007543044198,-0.10070096296017564,-0.10282872420692317,-0.09093353004352579,-0.5374374237618855,0.5534146037202657,-0.0912027532162177,-0.4601188258839188,0.021397472532628515,-0.091682379766018,-0.2227980936810064,0.44316334677525276,0.18772926001443235,-0.3335171718984978,0.03128754361606097,0.3702807430082435,0.4364779257076613,-0.20016793769012653,-0.3409600121006399,0.5017448723009607,-0.163432975231885,0.3860031970633948,-0.3827088558017979,0.3052828971371607,0.21549211721287592,-0.22193126404262994,-0.361885834797034,0.15058350775068238,0.3463884928896007,0.1840591837847104,0.28503833366834286,-0.23211198664487856,0.05870552341718359,-0.21247806387914528,-0.5267305208995063,-0.23312358213682635,-0.4894974017315025,0.07296191933511133,-0.5508205299353451,-0.242947306067502,0.3554851582284501,-0.4672915657792124,-0.4723233678044985,0.43049395682625746,-0.358553870681342,-0.26277061422297454,-0.07917679297315273,-0.45808664573338514,-0.5660465540317863,0.1736154177722934,-0.2005525064273517,-0.46857272941497136,-0.5511317540590914,0.34285225762186383,-0.012617246694581396,-0.12610085908069152,-0.4008965967947539,-0.02044190005448269,0.30390454066816347,0.20657431834535947,0.236967633391766,-0.30938626233032535,0.3640663278749521,0.3829903636423952,-0.49994503665431445,0.04007649859923751,0.3570504567098559,0.06102817606477231,0.3639258731775205,-0.23763932972682827,0.3540883971013335,0.19018951729843117,-0.06359678579845664,0.055671967855888564,-0.03385270671125579,0.13097816261143747,-0.3984421316200257,-0.03825597985593444,-0.22526970696344692,-0.5295316300005671,0.24555384742725583,-0.4122496306649979]]],"biases":[[0.2747075187624576,-0.3158867846954137,-0.08923992221497626,0.03991296223431146,-0.21685573015899132,-0.4205297780316892,0.2655512606871734,0.22356638568884754,-0.4338675513176838,0.1996203849898181,0.18842086512574538,0.08267896137859762,0.3946477118668884,0.45293458570253925,0.4170084959482906,-0.08551718671387985,-0.09690537138198005,-0.29650402877665655,-0.5003235472590623,0.11046896984835622,0.08498745363326585,-0.29765394945092355,0.012828992009252312,0.11988274287031596,-0.06103456337578848,-0.09084367806986217,0.411467699802213,0.29454643445498063,0.1409107214540222,-0.47067852724956954,0.31714524923731496,0.10000873079384216,0.3854245543123854,0.41021718759386133,0.3743514022449301,-0.3001751910009918,0.20605364230633058,-0.05249930644053728,0.3280904506996119,-0.019670566354228113,-0.2472819409717081,-0.30245603959962963,0.10298716469164756,-0.3209678070287786,0.049014138016971055,0.42262463319232474,-0.11146635768503492,0.1877164590235027,0.25171509575508244,-0.36992409996646397,-0.31943125495667896,-0.5183452366706154,0.27259225736574094,-0.4963851168921264,0.18523858360191592,-0.11483123914924158,0.11610168740316391,0.4220015603615908,-0.3606838822341961,-0.029488303162008442,0.36859259923189375,-0.3108253597095989,0.2463275765363395,0.1874400065105179,-0.3897402763215645,-0.0765340221831278,0.20722528908013396,-0.004332649541788391,-0.18140298864121196,-0.038214372120383346,-0.21770098523008669,-0.38269123302761976,0.3898225868053988,0.19038235135750112,0.02905263576779698,-0.40907276763614486,0.2276898086046777,-0.1060977805373558,-0.2945448934789206,-0.14585182819843207,-0.0765312985201634,-0.30676259198701233,0.3120117185025984,0.247912308262479,-0.009787343400127732,0.15140788751592113,-0.34042169992012444,0.24861480535190228,0.07548922464692037,0.14339591875042962,-0.12111239897611072,-0.07177263385600649,0.18812098531756302,-0.02748141706379247,0.22379631317600013,-0.04835052141177801,0.12967476332955297,0.40184525265720666,-0.35500725344114137,0.37515708676915316,-0.38205617339500786,0.318413241729977,-0.42233280637992776,0.3598496104580163,-0.3957701453212748,0.10170364897703506,0.40358873024081415,0.24145518345204917,-0.41249791548291154,-0.08454832490045848,-0.03381728593062289,0.1094847340414009,-0.3648224773706593,0.279615311514237,-0.36024711785566155,-0.0754147793709709,-0.2146386189321504,-0.38240078547504835,0.19485329987738575,-0.15333709527648884,-0.0799330075104374,0.09605586358561291,0.30725757500282713,0.33487162710968305,0.02917774485628265,-0.052045271469481354,-0.09696491169778311,0.0905418149036052,-0.24446287488043694,0.07069918947016317,0.39250946494251476,0.014996239821340664,0.08119913660789096,-0.21586183194721667,-0.047573661713485864,-0.20206479336944294,-0.20355728125930148,-0.030629814365040166,0.2290212752200364,0.4008319645042315,-0.15613861407169896,0.20749381039234888,0.47015431266246227,0.23316707386126354,0.10762928237677193,-0.46248314361021564,-0.15238012620957234,-0.11932559182477655,-0.015059631531516975,0.10181148805860406,-0.2302118970256681,-0.05300493054661141,0.2963725445620803,-0.23766715966245,-0.2245318129457634,0.26716042428654657,-0.4100359961654741,0.05411944886718379,0.12772617638287823,-0.44343572751648996,-0.028158633051750898,-0.05968518013874324,0.4358292353721936,0.088433501603499,-0.2192713506665642,-0.16297695276103671,0.23475736072399775,-0.0783422312453822,-0.3310114448111245,0.1533430849450894,-0.06084653422247376,0.46359160243009423,0.329624701157264,-0.09518425816039192,-0.37239820060421386,-0.169958149028664,0.18008212440071822,-0.3082658373164672,0.3609072963744591,0.09109985139330797,-0.3999489297027475,0.03600668550171664,-0.283775463428901,-0.2621883195157782,0.1394495115239388,0.3484015179072946,-0.31076954487135783,-0.17160314433981885,-0.011669827049125397,-0.1875679742571138,0.2797207407715181,-0.31300552134843906,-0.07781061677233654,-0.08752298599806134,0.15039452763635247,0.43711829841693933,0.01289018042172498,0.1728187775548551,-0.32457991931539315,0.33806025197568257,0.4146381178380183,0.13118646446329862,-0.32326036524444535,0.015713060511257076,-0.4300985633124552,-0.28502007602919516,0.19709065709347856,0.17089686994992323,-0.47005307461917517,0.44424446742630935,-0.1844601576408818,0.1172523797598332,-0.48361864093293416,-0.22591734168361863,0.3373611312354869,0.27290711459442535,0.1548716780167737,-0.6304439084273497,0.4032325913306219,-0.18270149285924073,-0.46383445334668605,-0.0130791656773535,-0.18927779509982087,0.05365841133083731,0.2799951074648232,-0.08171350925284876,-0.04682087176754964,-0.4310304523733907,0.0824217044610058,-0.24408463286537352,-0.25287630630925023,0.2605977444620489,0.3453774355686522,-0.2459989704653448,-0.17636216985561184,-0.27406297683858244,0.3844853873876446,-0.11280569707869938,0.38679148702060073,0.08483356559969621,-0.3358088813369072,0.17798925996997703,-0.35690165224738457,0.3264792701400923,0.2241161245922846,-0.4108470933887693,0.3360053645525304,0.015221258703952715,0.1689430274672712,0.07792711387525351,-0.25878390831242915,-0.026564584006954942,-0.05960460191082674,0.3823008029789314,-0.06923426265550107,0.4271398266561665,-0.15963643616204024,-0.3707258122467401,0.35740902187774637,-0.0420590355901443,0.1355695244214096,-0.0909980941317537,0.27783338453813244,0.2723563147585139,0.4413299402243585,-0.5530645451185818,0.07270077902342345,0.30751706556417374,-0.024735914135217873,0.023201896744861828,-0.06443104493703253,0.19709976817437092,0.44541574147196106,0.3069204082230233,0.17637412169478545,-0.3906119861339782,0.2451210465992963,-0.3715959382222279,-0.0016907066274438414,-0.1910532242123709,0.4462408275616585,0.08821769075917621,0.050599576729840494,0.18936612239775769,0.20163477418036732,-0.06238540946077788,0.07672382160213333,-0.07378511599757188,0.17657867310147235,-0.1563770343241073,0.11819240659863996,0.37731146408941824,-0.2901727528188523,0.2600824471830637,0.220930346217285,0.4177698339728283,0.1254604451818719,-0.4952281975998506,0.4687264383961853,0.3480789280090626],[0.10553219466290184]]}