{"weights":[[[-0.07031971578377896,0.428797994475557],[-0.7685047067947383,-0.9737151932029077],[-0.018342905520239896,-0.3164031340035523],[-0.1227106837676158,0.4271803809112888],[0.3058624956538054,0.1626529390545139],[0.3233613628696666,0.9506484824342336],[0.6779880631879105,0.8205514009305668],[0.7652635006330711,0.3071378881554302],[1.2085896951952793,0.7037339602974266],[1.2142655875508384,1.1108947680374612],[-0.20111396998702336,-0.17620896217207527],[-0.7169017096300965,-0.5855884542038129],[0.3559387717947931,0.8801263544286893],[0.5541201206850416,0.46977032492527815],[0.42355431431108354,0.6519006137415944],[0.08549788948067016,0.33845019264213644],[0.38374781535169317,0.9625176812859019],[-0.8693213034820342,-0.5270736027062101],[1.018139938658072,1.1699424735694801],[0.349464532933575,0.18462154106343268],[0.48969123011875165,0.19338271816634459],[-0.41889341338471137,0.12403940854881693],[-0.24267102201755592,0.1958033110319553],[0.5423097069141517,0.4957280903353928],[-0.5185406211468463,-0.646095547420015],[-0.18917176454768928,-0.16110510496503727],[0.6217554638401672,0.5740734259526444],[-0.37610042942309807,-0.8058087412978736],[0.030357994081344635,0.23515886938992403],[0.1785952065060746,0.46390390424201855],[-0.10092303770886844,-0.4773726995149898],[0.053805396236859725,0.025474791063592378],[0.22331582890935364,-0.15805868243696228],[-0.7197336798731484,-0.7405898106304709],[-1.2748713273402936,-1.0859163583542666],[0.07826824648304136,0.574033760150004],[0.7634361868842289,0.7070465361590322],[0.2570014186680252,0.4711996160567003],[0.548392103228525,0.16236053595183023],[0.17221717205638784,0.12230359542750288],[-0.2675418084020856,-0.7014995121873577],[-0.3267919606044337,-0.8440860991531389],[0.6488743667663447,0.8298434460384754],[-0.874281972077238,-1.2389642978552022],[0.20970412197086621,0.44591482888156586],[-1.0094632329969935,-0.9572446741945961],[0.8226606570090194,0.47223890170712307],[-0.5530680014399396,0.026870568986016988],[0.17646316803163445,0.501179914931674],[-1.2383672972458863,-0.7154452531670236],[0.130042237190477,0.3002893038909241],[0.13874992989855403,0.57269675851386],[-0.6820617665319954,-1.0441305271316064],[-0.6126537224095993,-0.5279204869010942],[-0.7554606973823126,-0.5949436520616965],[0.13548444511078872,0.5609707271074386],[0.6010779109222454,0.239719583060799],[-0.6915063498800413,-0.44972864306062155],[0.19573830874188652,0.21957564353258982],[0.8999075549371006,1.298157143082191],[-0.09962226268047362,0.11862880131648978],[-0.6093104374063362,-1.21995296161096],[-0.48513773944688804,-0.9643232620134442],[-0.7413278515303657,-0.24885580619230968],[0.36842440025097434,0.5303409187094211],[0.9130555442236378,0.9905262399736686],[0.08034976940139835,0.4356700734686601],[-0.03311031872393021,-0.474209256721518],[-0.8084265068219455,-0.29386235838184693],[-0.052975672257135606,0.38003540424689675],[-0.18038601006496766,-0.4408671791640418],[-0.1113888507934424,-0.05866369009908176],[-0.6288694080729568,-0.7636590837252227],[-0.15387405252148123,-0.6263632551156663],[0.23729461642452243,0.2906481489348298],[-0.02640816976084563,-0.11062308587150048],[-1.1511831326877768,-0.816758220596572],[0.480857008823814,0.3363105767548938],[-0.38349723740093455,0.2779252640680402],[0.30329960022209534,-0.6034338073748369],[-0.04213455507616012,0.17093311705694428],[-0.6199086412657061,0.07641696220882571],[-0.04663906814464749,0.20424714360048615],[-0.6953303388690484,-0.526542275924916],[0.07912973408751911,0.38858132781407073],[1.3880244670252555,1.3088243410451277],[0.15792333474189757,0.7776232188188767],[0.4322153793165222,0.9430579228072268],[-0.635688262353259,-0.09278278103928804],[-0.7062654478941242,-1.206191824928505],[-0.6479052595175712,-0.5040865491853606],[-0.4022899531340994,-0.13284512894850686],[1.0043646316207169,1.1733179210305567],[0.7289098578731631,0.15275975139328962],[-0.9627423172539723,-0.9433860494230105],[0.09119255081410413,-0.018725528323883744],[-0.39540794258245243,-0.65049270123469],[0.7922936617827382,0.520200179256346],[0.16645533419998737,0.5060339991514162],[-0.440715580077212,-1.0911971256532447],[-0.22623508714858992,-0.12646205161384436],[0.5179328185335675,-0.24339592612063388],[-0.7491462858797271,-0.28611956641900854],[-0.6402496738211368,-1.334010362847655],[-0.832524660268587,-0.6413209004684661],[0.05352463205915877,-0.07800246858439099],[-0.6316326825724902,-0.14061259280856142],[-0.6510374891154113,-0.31581236499062815],[-1.1909509142223296,-0.7932259201020176],[0.8121690745666874,0.30868990887048214],[-0.49519201882879077,-0.22043069295834447],[0.7149678812014355,1.03266429575196],[0.4897987626390114,-0.2505521712410014],[0.2968889151225918,-0.38064463490119554],[0.8916928643642935,0.21195630313039765],[-0.13521512927396995,-0.5906599821300399],[0.33850728745081776,0.42369715814892395],[0.5275161393410945,0.7317317751737953],[-1.0990374597572592,-1.0232510837044353],[0.37951254581063404,0.5891171410362603],[-0.26110948215496094,0.4764981631144304],[-0.32800154834682627,-0.16692687975247147],[-0.05552300347901922,0.5229367937930067],[1.0023371868970188,0.5853442677261878],[-0.6954563004857142,-0.7139665729352817],[0.7979417395468668,0.19672583635823263],[0.3281185128606317,-0.2865346279667395],[0.3331152492349447,0.051598925003468264],[-0.4906139493805017,0.20831375114522424],[0.25780903985615267,-0.09381834903685377],[-0.5202453486798706,-0.4764599178236149],[-1.147325100399606,-0.736196347917236],[0.8757966002317257,1.1896803388863393],[-0.13066857464651482,-0.3507110792623398],[-0.45708424101271805,-0.9217999455970697],[-0.012525621565286077,0.12419594498170203],[-0.10281629551615386,-0.02586899353396323],[-0.33746981157491956,0.3788649817133271],[-0.0905365668804746,-0.36047177893778387],[1.0458077743882876,0.934890821898755],[0.6571849512896356,0.9527271583339865],[-0.8962039498411649,-0.7526406874181998],[0.2384150232444099,0.03779695910608584],[-0.8727194633741749,-1.242185830102992],[-0.2129714300872461,0.1734123601452389],[0.32443436618397603,-0.4838531897455733],[-0.6569789680407663,-0.5867902603118821],[0.4528924475403181,0.6324809098438722],[0.21761054806556626,0.559679633356927],[-0.14629514260437868,-0.19552254895266655],[0.4105349389251625,0.5114507150938963],[0.3666358019755414,-0.11067765314009415],[0.6326936587493734,0.2465325832979604],[-0.8532715544402047,-1.0748944303198238],[-0.2891502217276021,-1.2138082331336606],[0.17724748722596087,0.44466592533400057],[-1.2982089489586026,-1.2487997575993075],[0.279656804429632,-0.013179495971947685],[0.8377381945656928,0.6615776941000026],[0.377469716471378,0.3217082927893787],[0.2812439620281821,0.4111632330382421],[0.06048726071550293,0.4160667405583935],[0.07846538982144198,0.4291446028816734],[0.5997317102920459,0.7638519091501419],[0.34004290880453614,1.0874683524773348],[-1.133774741140494,-0.9946061518742103],[-0.5353082718976176,-0.6925258737423738],[0.5019619403152277,0.1332225853304134],[-0.5744552572954328,-0.3610634481036708],[-0.044322234168986764,0.0044008308303117956],[-0.27046325504383173,-0.2044429371880675],[-0.988545314936441,-0.3549319304415754],[0.3453202307024315,-0.12190160264130366],[-0.4523972562823854,-0.7403278380441604],[-0.2210846662488783,-0.5476061922973675],[0.10510747304667732,0.0005577734142687869],[-0.6645884446345893,-0.2148967322097853],[0.49743099581702244,0.2864094896800666],[0.8211044152283244,0.1875923280347151],[0.5793227619118274,0.12625209406729615],[-0.44235080656616155,-0.721959550954907],[0.7256363986725821,-0.11514260179510327],[-0.5048981755528704,-0.3423244430657298],[0.24100853696626942,0.5287655921000688],[0.6944304733226885,0.3732420303167836],[0.7098592889501573,-0.03163880712664125],[0.33571176830074,-0.03499677292482714],[0.7135632959135684,0.1120135918901712],[-0.550342172976094,-0.9760346424467299],[0.2074106597796795,0.003971922722601942],[-1.0690355322358356,-0.546046266238117],[0.6894490443561074,0.7480254619239884],[-0.5828799073069538,-0.7941909256464581],[-0.04136643741715381,-0.3163324394170741],[0.2921926597597438,0.5601702538351934],[0.44237400784762976,0.2371140250142084],[0.6908198917511119,0.3550684425145544],[0.8374306331757047,0.370963491510216],[-0.17450711102280936,-0.38493956802351437],[0.47500597460258026,0.2532179071081832],[-0.27505449343992444,-0.25319241308534807],[0.4209803427502117,-0.14494055460188113],[0.31420819993743704,0.17436548485511238],[0.09450810399914965,0.0939862668423967],[-1.0440236496416413,-0.5432851770314905],[0.10162034969296278,0.21321217793910302],[0.19612853025618282,0.3059234049442372],[0.22748753018794587,0.6081474491862705],[-0.12734881071560755,0.461793128400646],[-0.6402684792764385,-0.7874255403484473],[0.19016247718884483,-0.20468561812692643],[-0.13758443973696535,0.20947264419294503],[-0.4748181898473651,-0.757987237001497],[1.2389397702951153,1.205044954498939],[0.7398294970342831,0.6811284265020272],[0.4407624421757597,-0.20056229593873592],[-1.0051264765622439,-0.77283560999257],[0.5760392483313254,0.3197228282646252],[0.15305320498070882,0.2161894520835892],[-0.4505885579439027,0.04899914523862179],[-0.16087304643025946,0.13082104061710442],[0.03725927285684194,0.40924848204543346],[0.7564323489051614,0.7677930764172444],[-1.2869124120358524,-0.860371185825721],[0.6364552735452202,0.7204590081251987],[0.2518189619640781,-0.23835301547549884],[-0.5207999661807672,-0.14556031447458662],[1.1142261455725875,0.7211345873337773],[-0.6288145766305122,-0.08054259923230293],[0.92960382848433,0.3584144804284692],[-0.5542189882970346,-0.4294914182286227],[-0.6424216463444041,-0.9089767094074074],[-0.5924107492829631,-0.7561794097556066],[0.5189153683803311,1.0606385146001953],[-0.8503955470511686,-0.8058259467514337],[-0.7896030891460977,-0.26336708427198924],[0.1404345683715785,-0.5134948849611031],[-0.944815047069999,-0.6411191832928984],[0.8447434439341939,0.41879478556592564],[0.47007910729667235,0.6235364893454117],[-0.28104474646396355,-0.956187386746851],[0.36021367579767605,0.7118025501320268],[-0.3388756166461126,-1.1785025236097761],[0.2426278158351879,-0.4836494546804637],[0.6171232367153546,-0.06657578883905599],[-0.8330356420407008,-1.1644412506706878],[0.59147871631632,0.28976462944142917],[-0.5533589751562752,-0.43312076118012893],[0.6563160507029675,0.5021158404075744],[-0.4071314289661272,-0.3806612272762162],[-0.7359672436869772,-0.4990105175480646],[-0.09641982374484087,-0.21709000055672253],[-0.3790799145293362,-0.008431831913735656],[-0.5888486331489491,-1.1214696343914008],[-1.017754959109099,-0.8281870056466207],[-0.4311081228507203,0.10780130609134493],[0.45176602840959146,1.2236448120400392],[0.6189732797100228,-0.14825629735361193],[-0.552523674527404,-0.9096003083429931],[0.7300234580813046,0.36722561746906135],[-0.7629449523571457,-1.0832378837808592],[0.9035289728798931,0.8208719080175558],[0.4924564618514073,0.3085346742384209],[0.0068671470832543605,-0.002912407617416617],[-0.3556938999630961,-0.23719202701109413],[-0.4799700242354319,-0.4194004630037536],[0.6216960731750594,0.35965024510940974],[-0.7932603646307363,-0.6409607106610915],[-0.2777096277754232,0.008775636753267905],[0.35823895853680615,0.23722117274399543],[-0.0719470303026198,0.24363684836204025],[0.2196921682362312,0.10646116144874974],[-0.8182749321042156,-0.6309780740441469],[-0.48960616228230414,-0.2891765667534873],[0.05924896614711702,-0.32085130088699504],[0.05571280906331999,0.04909999668739739],[-0.4039828041207023,-0.29663417598274777],[0.14885494648615888,0.24322567162405173],[-0.7750083766815294,-0.2774856633396634],[-0.523373559175942,-0.5462083594705738],[0.21673222107603546,0.5429128927872037],[-0.5935631188304019,-0.1251186746310178],[0.6126043508769382,-0.010194063062701084],[-1.0615470972251206,-1.1239537698962465],[-0.7980029563038901,-0.23601209863268535],[-1.0810595348321959,-0.8879345840657202],[-1.0937115228000733,-1.4414312362746877],[0.3095801143219887,0.3456639963409427],[-0.8415901561720004,-0.22731617047665897],[1.1040252950803138,1.0343242454351276],[0.27657616675702007,-0.4036949176764928],[-0.9279830349196798,-0.5675002654643626],[0.5096877235183648,-0.035285120563483194],[1.0092691301581456,0.18991358066512798],[0.3657109134793402,0.07318448700951066],[-1.1247034143378083,-1.0207905997996654],[0.4418473741323909,0.02090557954378568],[0.36222894928079774,-0.34276338173887927],[-0.12010544525192868,-0.017014912596343124],[-0.9278456161892028,-0.8695312950168814]],[[0.19321281531576934,-0.49874934711912355,-0.1878221333444212,-0.041135260806775965,0.07023144833213221,0.4294189252023114,0.28660410270419345,0.28482922006272543,0.4625318605137229,0.5290097766529515,-0.23393958635115158,-0.40542314382055344,0.32593089617212945,0.1356258894157981,0.37387226017399466,0.1752356474085428,0.30454167500606644,-0.3814557239591232,0.4305875663957266,0.36938505767794444,0.2847163687552024,-0.03263701918758823,-0.19396012568282656,0.3162749356467676,-0.4149233290298278,0.17190040693340086,0.3336912466936758,-0.4493646182451863,-0.024136069627924642,0.09041809274659993,-0.17393885590498148,0.036082853560303975,-0.013257654014251214,-0.4719579841405509,-0.5608867792454527,0.28982897773422867,0.4076348516571069,0.12694438666311758,0.21743704624933105,-0.127606888705999,-0.3919367657399815,-0.3557124667576375,0.3219818620834272,-0.5094854243507011,0.14883193335448808,-0.5509268290281081,0.2961854480495981,-0.1090344858449732,0.20333602132482803,-0.5606579584734386,0.158155814289818,0.10006710086199809,-0.4419819195613511,-0.15968332604458443,-0.4541384333961126,0.30482177424043755,0.19085377296736047,-0.3951208429170334,0.029186274439124128,0.5016834709824871,0.22477738205649767,-0.5821780989555008,-0.4856049488822531,-0.39513050614780154,0.10039799442266442,0.4220704335139477,0.25414787244342396,-0.1411470055269217,-0.43487140007681235,0.17544868779656583,-0.25603563671449137,-0.28353542029058726,-0.3179531143821533,-0.2230670447004437,-0.04254599690121318,-0.1295356985525546,-0.5519215763755473,0.2514966692382355,-0.035715369822910306,-0.1688501639615576,0.18724334551762042,-0.20814182092621658,-0.152645163001937,-0.45097954836861737,0.33445911989924054,0.5726916551255712,0.3485267382112764,0.3259972026378944,-0.1918903983806088,-0.4613994305581241,-0.3883627497378552,-0.3743565274241753,0.514836729015644,0.25045820014125664,-0.45423049668821563,-0.10820411583408283,-0.2679066760439378,0.3236637769788613,0.32335752639032284,-0.5232237151384345,-0.2289613780372721,0.014799599008310425,-0.34891131419771576,-0.534211028522724,-0.32584503411954535,0.09708064495004153,-0.3618259484628393,-0.18327765508972152,-0.49325756523781855,0.27833697080172815,-0.22768524304017498,0.4821392148302221,0.020442732731179417,-0.12856537949170824,0.3949202328299433,-0.27020964775230977,0.16462183056927998,0.4305631039533847,-0.5976736433899218,0.40268753298306986,0.01558032238229275,-0.1132787125885212,0.08467655473329591,0.353112876558928,-0.411780624491294,0.3908930486576221,-0.05113467476202691,0.10632294018487312,-0.049795001680885013,0.09150329513248383,-0.17502512661810274,-0.4875291918798761,0.5164461684652722,-0.32074411519665813,-0.417454005463105,-0.15381976420988605,-0.15030162762314697,0.0911203783933234,0.042645130859799214,0.43285334355456795,0.39255186852091273,-0.3242504288038376,-0.12511871949740552,-0.5778276017607346,-0.08462457537984214,-0.06393259804655584,-0.44003022989040025,0.143630278088011,0.22315606642954305,-0.3534205442333971,0.3449412268152541,0.0590508049338146,0.3955027277923164,-0.5139234475830207,-0.4579560947894373,0.22968367724299843,-0.6009114468066461,0.21235973162075972,0.3448842805763898,-0.09438654942722956,0.018373181434852854,-0.08108222356188705,0.26926182316938607,0.40209210420051456,0.425993796904543,-0.5130710396579667,-0.4565865008031986,0.17692213682300298,-0.21695931955063014,0.006228751618713513,-0.3492295494109064,-0.4182478307647382,-0.13264768430990304,-0.4315323037163582,-0.4141946157580117,-0.15844658798001435,-0.28595020898865553,0.06881284830518633,0.2796408091765986,0.16085571818213593,-0.4638478920110647,0.21863939057220055,-0.2700649200527524,0.09242532087238342,0.2811499709710523,0.27162317603855535,0.27123649802410976,0.19020669416924435,-0.46579534726198457,0.001060995453359314,-0.49333483932588446,0.2770039830815486,-0.3256314713227376,-0.2932905496428085,0.35771530695819104,0.2300918550434774,0.22832148939462077,0.2822337633125429,-0.015383329674477128,0.09833874496821597,-0.14709620053208974,0.08895545616109202,0.16177870998148605,0.18262216528729558,-0.5500842779984512,0.02394248514760741,0.35783505411691047,0.3426134495397708,-0.016675178167753085,-0.46437046779172564,-0.18701601041250704,0.13619903377806683,-0.5048874122121298,0.49154115802540893,0.4155212775713913,-0.0028040064071121235,-0.40397223259204784,0.10098832405295087,-0.16437564881806854,-0.21692971044241824,-0.06212832284911943,0.3160323139117845,0.27238486269082085,-0.5961693049479758,0.42147377690012466,0.07727004325810741,-0.2126710419877177,0.4262304191339427,-0.32418491884533085,0.426916793059987,-0.4473821621755054,-0.3883229895603428,-0.3693404984346083,0.4300549083442926,-0.37882345823110436,-0.26676790264686023,-0.11656945020657632,-0.495989767427248,0.40489664165274925,0.29589658769921656,-0.4084891103231478,0.41498293709565887,-0.4703888316089066,-0.12169954984800542,0.13197309776942295,-0.5531233075499784,0.10809516004273043,-0.372174942637229,0.42055511658507394,-0.2181617145971853,-0.3867847961188554,-0.25701908433193144,-0.09747641948808117,-0.48224966132860947,-0.49718241561740517,-0.031937950576068685,0.4567340695922673,0.10300034278427987,-0.43001940901652586,0.28422343024367636,-0.4837001994926274,0.38369804697958626,0.14396943566390022,-0.1484813842021212,0.06547980234562654,-0.3946908746197232,0.22889303558503388,-0.29890227059503527,0.03672826749693678,0.35519793054114907,-0.12072123749252749,0.21514481924003143,-0.3132579062062493,-0.23652918030877204,0.06229907691520177,0.2886161599696901,-0.15425782278253486,0.11546276449465959,-0.32429149370219323,-0.38863137522983054,0.2133485610423864,-0.22730034459765297,0.2155924857772136,-0.5642276928153612,-0.36422956413970764,-0.48481261905971995,-0.6107884276712987,-0.05717904182748796,-0.3651048105724835,0.44134089185972736,0.0178066075317169,-0.47180133327301726,0.0206520904334561,0.3638228379027478,0.3149581681116718,-0.5140899042609164,0.16837989293564345,0.025447787634963043,0.1879636664774044,-0.5679010967579636]]],"biases":[[0.25776759227837837,-0.4597100770466322,-0.02947109515144967,0.3604004662734823,-0.3439650368872484,0.20065169955151507,-0.24168475302086806,-0.32794686216596197,-0.24600541408972748,0.18923465322642524,-0.0605687754260633,0.26906138994788364,-0.42468034305614755,-0.38373993880214274,-0.242041358979804,-0.43597672946201116,-0.34591283942978823,0.40651311535423446,-0.2998863926155256,-0.13962030768351305,-0.2763109529786678,-0.3993371402586538,0.2548212587521397,0.33214874920703114,0.21595520825523423,-0.4604882643501487,0.026124936546502775,0.01210135104474929,0.21238538408546187,0.19281852341183348,0.32999474561664877,0.037252910396386306,0.18350800474321807,-0.14709436374710633,-0.02726226256404531,-0.08612715638712794,-0.0270791329273845,-0.06517038738019855,-0.3665575279000228,-0.22098215644610653,-0.2393810975138683,0.4459451269956233,0.34004963120376264,-0.027764607430515217,0.027103420034577518,0.06106382117373905,0.31419202192008355,0.12624729074404337,0.33288116863589673,0.09110568265819842,-0.422980498831628,0.4439860840920668,-0.04025679539028888,-0.0043273791070179484,0.09470510754932122,0.3030284673375608,-0.1035584497628352,-0.016409441850413625,0.1588867629195152,-0.17599731375794375,0.36175174982644126,-0.2262997891937761,-0.16704945030230836,-0.3218871263997386,0.41538843931538955,0.1200704342329465,0.4833022539936703,-0.26143689505782886,0.24849861545344903,-0.3624557374429062,-0.3899236047533316,-0.03708258728488733,-0.2850232485527763,-0.15294952418075686,0.11768149081253267,0.11844898958669516,-0.4046928923244027,0.0777326507602661,0.481564242184619,-0.4066328257346658,0.2748928420717486,0.2639454154552346,-0.13914029076649415,-0.4444785898612023,-0.13821578907187063,-0.216177973184116,0.39087603334776116,0.04441329187088282,-0.16365246798873526,0.2200724702185566,0.005181260380273456,0.19256430084794865,0.19374933668741057,-0.17054771523920914,0.21351048360625333,-0.1842661279706203,0.21638319935454756,0.2132365514082308,0.4831657767627086,-0.2845740283226377,0.20654944222821578,-0.2916488587199916,0.07806008292501201,0.10145364498596617,-0.20451921927928216,-0.2935222551501812,0.0685655850025482,0.1131574913695443,0.10040738083137096,-0.3860652695301767,-0.2888589029565286,0.3344743763494613,0.45235659489213,-0.07026034620123293,-0.21307126733321732,-0.13324765660977686,0.09939366564041825,-0.2762238690076653,-0.2314045364517446,0.22730164913019413,0.05743737404244003,0.47025522048351304,-0.3791554535577867,-0.24071267189383905,-0.012400226239096345,-0.2352150555106104,-0.20038906871552944,-0.04824226803504148,-0.459389707257734,0.0366965433659555,0.4906263822945799,-0.03275077110081617,0.22058337619390772,0.38271186604065255,0.35433435123613505,0.23519924450799892,-0.3620998103293898,0.0777276610683978,0.24787143665634173,-0.07059398812945158,-0.21910730670224654,0.3720471376751259,0.4972552604520935,0.027111165434040702,-0.0715937956049405,0.257514573071135,-0.3353790879224539,0.2615274729548107,0.42363917617191654,0.0226987045303785,0.3073130163818127,0.4240372683088927,-0.11859056666584969,0.050233582711344586,0.04698899849739123,-0.3163429867704987,0.016983348806517924,0.037180806169696844,0.326195335428782,-0.1516490278553623,-0.5007728014428499,0.5024313618449241,-0.16350381478243775,-0.26410437910118806,0.2609932059407285,-0.15073860587805749,0.25145268126332876,0.08676387741627663,-0.08582923977691394,-0.12115764806399407,0.4384014675476506,0.16459597877945661,-0.19025300106550552,-0.18452940628450357,-0.1881748294748382,-0.39062255980939403,-0.17615253668356018,-0.38456923650942965,-0.05188401482963903,0.14897529545879562,-0.41408553019832556,0.19224424277318777,0.09002863680192684,-0.40355768986102536,0.38429722740626615,0.32187324127789835,-0.18625683780962934,0.06870882893628011,-0.19083849649310236,0.23079640229067216,-0.322195285325097,0.2930595015253842,0.356636168316095,0.06172115364010728,0.05105304485669219,0.27313598920548937,-0.18899205102457728,-0.026456267244710965,-0.3823652970834901,-0.3307169719154646,0.21670392424720333,-0.17811808477495245,0.29510979792134073,0.24715591199142073,-0.46980275077863987,0.35890102572081467,0.48392901076486455,0.23861914256400352,-0.25098243353415683,-0.3482317125533755,-0.02491104044364795,0.05289242972420732,-0.20393335599294393,-0.17603555234555218,0.20077464146181673,-0.3183600934667768,0.36214841500949496,0.43420838353671476,-0.17896654635744608,-0.28425590338183143,0.4430817475579135,0.3151836829919912,0.2612380279970144,-0.1306774324014171,-0.20653745265109916,0.086975107197659,0.008610410225302373,-0.20570006030408983,0.4381460299084745,0.13618596709468828,0.11105671595850186,0.13126866179546198,-0.30619049559347655,-0.2563413599284236,0.40791702993087053,0.11732440068049643,0.1732853241374344,-0.07470480500540029,-0.1997704379192476,-0.26692610638728215,0.23106909872338774,0.41316389512987306,0.10726076287213071,0.20584677063030543,0.14195508180004934,0.12033714198434675,0.024835271486520347,-0.2703114643867299,0.2820500864030907,-0.2719962943773539,0.0683609284858291,-0.15296614395783392,0.07099248173924941,-0.24313305711555022,-0.3655406018173468,-0.4607110113385923,0.06629665528761426,-0.0532061177708639,-0.15629606939245172,0.23597218481136797,-0.05232541411827955,0.11302125991748666,0.27143499503765456,0.25010455542214616,-0.12925594137781768,-0.3533243629064683,-0.24524811369977942,-0.1045812315327924,0.10123420601060702,0.3863709320304183,0.3931584930906974,-0.06646341075084244,-0.2886622085068439,-0.3617558309418702,0.07123421712555317,0.2686857542960551,-0.00028775798183134195,0.44505403214507927,0.23654450705533644,0.27777199572549405,0.14388891171674323,0.4869479251912637,-0.14167577298158018,-0.3154598096622169,-0.008520601672531459,0.016618404407729933,0.163069777656831,-0.056701606361251315,0.17444419289672583,-0.24949467596722358,0.040165033373993124,-0.2530021102611859,-0.33351902296799407,-0.3322775068829841,-0.4344511299563544,0.05919371080270082,0.43253887765274385,-0.31003070030283536,0.41039098427066223,-0.23901360722187312],[-0.007791244395209789]]}