{"weights":[[[0.37498933555912717,-0.6715167281516272],[-0.16952067057420095,0.45045336666757263],[-0.23958804618214494,0.10325945374499237],[-1.10599327864586,1.0824498425906905],[2.1599893026060157,-1.9065460859866472],[-0.3946150152615637,0.2621409806488988],[-1.030367102133122,1.059223187659341],[0.28545851812768636,-0.20259951918418534],[0.5052483774007221,-0.6996762770412759],[-1.4635428900778382,1.6618770313651843],[-0.5425622710281021,0.37192111079859436],[2.506177400460497,-2.7053700062074544],[-0.47962297607882226,0.21166187723496543],[1.0436874349583296,-1.013965897667812],[0.4001458703033496,0.01952759831593053],[0.11444324398887144,-0.34107425934606356],[-0.12049496993358118,-0.02534343941534574],[-0.1689212958710748,0.07300277714046334],[-0.09034886830435258,-0.2693752369431784],[0.6805215057203422,-0.44744836351926826],[-1.1530192748678958,1.1699965604017692],[0.28488199277551274,-0.49708175031046853],[-0.13603706406880314,-0.07604587291327257],[-0.4111584896645189,0.06550930006460166],[-3.0495978711739005,3.1752343754581327],[-0.5319989191136298,0.1414849106996717],[2.65349494085902,-2.733988806353222],[0.8388523176451956,-0.9268621982832408],[-0.41626912459477583,0.13458411113204471],[0.6760144695539674,-1.0771706554699843],[-0.7162734637660837,0.5888629127245042],[-0.1597216156855796,-0.5916164922288185],[-1.481286684363215,1.6348741824903277],[2.492431331735031,-2.288226592068221],[0.4825584391083314,-0.08488776641141697],[1.391902805241671,-1.2323614540754144],[-3.922502096499348,3.9077785664032616],[-0.4213652825121706,0.2707892562058877],[-1.403992134487293,1.6718847888480126],[0.4245959307307392,-0.1023054476594204],[-1.5227092598220955,1.7409047184141593],[-0.8023558651723832,0.7136390901880751],[-2.6411850584134573,2.8806493691628394],[0.2334493949160065,0.06585061675398836],[0.10442429399975962,-0.25049907474003763],[0.07578304440221523,-0.15425525778472937],[-0.4046881839344371,0.25107712100353013],[0.5877598842953448,-0.3478247510579401],[-0.4275791308861999,0.4969616404282423],[0.14662397415240203,-0.38055929795235294],[-0.025839412420719188,-0.4372764493315709],[-0.2764630917387664,-0.3549471180375493],[-0.5308885005939974,0.2976141468351459],[0.3156387704927242,-0.478982750036296],[0.18079622228310172,-0.35966924643115367],[3.5817195840995324,-3.610424226082265],[0.6359337594204039,-0.8245579370620997],[0.5430714126524244,-0.5596718133181212],[-0.7543665791383518,0.9150054450784899],[-0.3584214455329843,0.16021055802751222],[0.18142205684382948,0.007615647965322091],[-0.2270804972749552,-0.211660440319756],[0.031242753806483545,-0.04152528189952424],[0.49373959482024005,-0.5216402502367951],[2.389833291051409,-2.0875079975979314],[-0.2232388939513298,0.0991477179881635],[-2.433988092748462,2.779445771300002],[0.4054295449549307,-0.5740166790457494],[-0.34135630205925044,-0.041568646384631085],[0.6431093763546342,-0.8677357839182122],[-0.08884047459378644,-0.5054398718922327],[0.503847866111701,-0.1255266212463858],[3.5225286707967083,-3.4932721011719785],[0.40024299445498857,-0.392257625011996],[2.5117626139121785,-2.521250068804514],[0.47418840567796633,-0.6151603538574646],[0.902104075380374,-0.8589139025435973],[-0.8199005569031589,0.8107889947937539],[-2.501911946443399,2.840951602671066],[0.2533760364774462,-0.05334758039288057],[-0.619955587591642,0.5435657807225817],[1.9539231857413033,-1.9670120360617405],[0.06965337774734284,0.046387335025057236],[1.422038639519329,-1.2336340746938703],[0.4554695045054045,0.17219322067004786],[-2.5856243817325035,2.539782383649579],[-0.1100102475342126,-0.29487648137003825],[-0.2486336138107337,0.49771869829284365],[0.12485604075464109,-0.10357953958380296],[3.962875823024949,-4.0271324803181345],[-0.01324804679424757,-0.3992860569422683],[-0.06607193192226443,-0.15194807623664008],[-0.13956299329989508,-0.4673684835909587],[0.07034036641760674,0.023597775122592222],[0.3809552487833292,-0.4024093118584168],[1.3505594568421975,-1.1860059839342862],[0.12983944529487146,-0.33406170452420847],[-0.1069627289514553,-0.1567859291674272],[2.377824715438976,-2.6008875406159566],[-1.53800947249352,1.8988124181638963],[1.2196923679793898,-1.0952892948363853],[-0.8749342628295583,0.8097680065536844],[-0.5667093245920938,0.3326743574558605],[-0.25577490171650025,0.19952349341708916],[1.1159565504883158,-1.0213048391953337],[-0.4643549612537512,0.1606038607154682],[-0.1608015790484929,0.04888583752952813],[1.575623683917684,-1.4356814038449552],[-0.08162904000811899,-0.21944947334307016],[-0.21144545874848042,-0.08512119636298554],[2.5966742874139217,-2.4411532861273764],[-0.021708604455630668,-0.13849649414841803],[-0.041606326069597355,-0.48283541251049533],[-0.1446461720962956,-0.15574540243497248],[0.27769276082801436,0.1814275992580347],[-1.2120235042398393,1.2990587534243245],[-1.432846216807103,1.5474878136202594],[0.9807743844589452,-0.9766553547323523],[0.2691855844497947,0.16165476402446824],[-0.5471937845761518,0.32461241119930156],[-0.4673425145260488,0.12303470867315748],[0.09946260942509479,-0.503748817736289],[1.1158413093593085,-1.1661343523582928],[0.1023882262641291,-0.25988677762687606],[-1.4060449724372883,1.5515393493583438],[-1.0691962398605868,1.0271660142426933],[-3.420943934257487,3.4827315293782815],[0.30581602372907957,-0.07239502192282177],[0.3592153965270496,-0.6350471319126685],[0.7157556071985861,-0.39488553665138165],[0.5448470239108554,-0.49691653704528616],[-0.037763569661605774,-0.002784485057646286],[-2.1305339882023335,2.5148604360853213],[-0.5575921919499165,0.5449993745721747],[-1.04638219064362,0.9898856313808745],[0.08328341884249257,-0.4442655898157359],[-0.27418417796424954,0.13364924903653272],[-0.009212798603683415,-0.013393838134221655],[-0.26245830398975806,0.08154221884813492],[3.327807108906048,-3.203651649935083],[-0.9886663111845344,0.9461000050161527],[0.28759383425688806,0.1767683906507318],[-4.878226963058957,4.737928274200987],[0.6311857716505831,-0.5325749226243057],[0.3238964971847008,-0.14777140381495835],[0.37299067786500534,0.05515339987493312],[0.00647458129626217,-0.21687333673103426],[-0.22767909754429047,-0.13290807734988777],[-0.6471110709024501,0.4009674838468638],[0.06447501013395167,0.28914737636658805],[-0.847633433631464,0.8271619391229698],[0.4132237231405429,-0.12651348407975627],[0.4840318742926535,-0.4406922494937527],[-0.6535880866958019,0.7127760761273095],[-1.37268690500223,1.429839108833881],[0.14629545811717545,-0.5384553652204237],[0.7091084316552291,-0.5102173007582848],[-1.4411726594675496,1.6933888293651134],[-0.5886721084309049,0.5507376165077366],[2.826598976312217,-2.5960934856334648],[-0.2912932217164498,0.27650482781450836],[-4.062319145713679,4.050998088447015],[3.003228469989231,-2.758073596212728],[-0.28443792334644036,0.06878394923687275],[0.5797863899056319,-0.3256781676024967],[-1.2975529815769333,1.3187505167685067],[0.029827956813279637,-0.11738507298670965],[-0.4758588135129104,0.3080904476172847],[0.446894206491626,-0.2822696958721753],[0.6529004810214852,-0.5946117193591621],[0.29462823740253347,-0.49979230359800214],[0.8034042957133736,-0.9193974612235203],[-0.0363437024762681,-0.4656968715540867],[0.47671145391612274,-0.65781875031895],[-0.03362273109835183,-0.4234672605341613],[3.01269779642368,-2.8313683142946346],[-0.5265316363247226,0.4020851302505213],[-0.16698432823910014,0.08611875060191133],[0.042251392394782414,0.10038066970275175],[-0.7043431297754704,0.5320526580362582],[-1.7876395340645455,1.9778772353190126],[-0.98489216446876,0.7204656172205948],[-4.431588350992927,4.343419086083172],[-2.8312839776245338,2.958992024743794],[0.025981592578485,0.27285465524376074],[0.5606125477119134,-0.6104207700968307],[-0.09100386604237001,-0.41079972744254817],[-0.9633604000534617,0.8688300632730459],[-0.3883761120215512,0.09790884049552476],[-0.41709963537773065,0.3388535179993722],[2.966438025473354,-2.9793425063967334],[-1.1021867421439635,1.22324443890586],[-2.8749624667405316,3.128008990561114],[-0.7390656327688453,0.889194350859183],[-1.901996623262212,2.166588204249418],[0.9176792987979274,-0.9823846562883538],[-1.0796048803458367,1.101536441076368],[0.0973701687344695,-0.2818470721569279],[2.2644905452489787,-2.060730083390797],[2.428793200225139,-2.4260358107561335],[-0.008802502259324808,-0.5174426953391471],[0.29867550244976315,0.1937984906139532],[0.26782774980486496,-0.027107173594315876],[-2.391488502585265,2.5220256365492446],[0.3361431669879003,-0.18572943413968568],[0.27234094542035686,0.009105249032942957],[2.1196734381816476,-1.7114996304756371],[-0.3582912697031674,0.24399292676775947],[1.190754848294176,-1.0695974099164838],[-0.375079072393947,0.28156926908415836],[0.22184721276225275,-0.31139342837275047],[0.8181781605486385,-0.8915015319611685],[-0.2850569578197102,-0.46249953280795336],[0.49071414044379763,-0.10106916008764569],[-0.7602951380296655,0.6083855915618293],[-0.09430001636023656,-0.3554490631487287],[-0.030346435390906305,-0.4032505696478284],[-1.8998531919248423,1.788912518382018],[-0.4008595724267475,0.6250422590872898],[0.06914334461072277,-0.34801796931473394],[-0.2718133817701892,0.24845754072550527],[1.3412343020174349,-1.1405865524820364],[0.23020123255654298,-0.11412738753284832],[-0.7771299784756482,0.7590472746847514],[-0.12613119334941994,-0.16948114036614037],[-0.20814525101709067,0.322537144691373],[0.105165441504184,-0.42758460302780726],[0.18406660110292103,-0.1848374965179238],[0.21192760760147242,-0.5313072200366317],[0.07779577192637953,-0.01761714310915832],[0.675110338360266,-0.9371274397782925],[0.2133512146397008,-0.4894685168736249],[0.14049445528459742,-0.24889485347992524],[0.3108036437234854,-0.5597857779152655],[-0.3722830351071658,-0.07468777531948952],[0.22147855630537708,-0.3150765641989923],[0.004131226921491432,-0.181188581809402],[-0.3154777992029701,0.0045750725704563205],[0.04427283400653479,-0.46266653736979324],[-0.5101944180153507,0.32446796479024886],[-0.1579547069989898,0.28731830675290587],[0.25612202854336935,-0.26695863389801744],[1.1656094883470411,-1.3163638349857427],[0.4502264285969561,-0.054289102456774825],[0.4093712256157898,-0.15301730383260043],[0.4407641348340867,-0.41245445594424346],[-1.7694604096961064,1.6030769589952731],[0.040124728088799855,0.07214944355122598],[2.215065499131612,-1.8777238121654314],[0.3062177521657474,-0.5902866892527479],[1.0625534579190647,-1.0365159919316882],[0.2178571148628689,-0.37781534596561195],[-0.2054421410879243,-0.27622321196408084],[0.03754164752580137,-0.292420641174761],[1.532580755061719,-1.304510032792317],[0.7945930810083315,-0.6586619082526752],[0.10116447900612575,-0.15178058552881601],[0.4730799247427234,-0.5307207398232612],[0.6267340112883825,-0.7327964280107174],[0.06823178093882341,0.14388047473646812],[-0.9074632218654904,0.8005727852725417],[-0.5134994257259065,0.3450669119603825],[-0.49117345479710683,0.30518072378075306],[0.17814894753212202,0.015827359924748235],[-1.399751670929189,1.5042231422256325],[3.5581633179961427,-3.5464217069224784],[-0.21557234222405858,-0.07783035518456878],[-0.32189978764231664,0.12484784533894783],[0.9895131517669656,-0.9975317960874975],[-0.13618301813468647,-0.14621962381379322],[-1.113195838090386,1.1148681504561782],[-0.3223393308535654,-0.1794943455098931],[0.07715514927901126,0.09617886034928376],[0.2888502454788585,0.08403029870167036],[-1.2819293950157526,1.5027334209673713],[0.07731960236765983,0.001383567774714403],[0.1664862938469606,-0.35426432717843315],[0.22113154521195924,-0.47768721908730744],[0.1849183450895593,-0.43385071384661195],[0.23651467223010073,-0.2784939762324718],[0.23242242518377573,-0.46155600347755443],[0.07626997992796136,0.102240533543272],[3.005821001643968,-2.9476581760366436],[0.14650180839375487,-0.23242762315912624],[-0.32409725888260554,-0.10930084762378671],[-0.3844366130315199,0.2693439664930261],[1.7621674686773883,-1.7786680731539082],[0.4393509042463586,-0.8089690872259371],[0.8483074785544261,-0.5900876156065515],[-3.5497394345258684,3.610762483889772],[3.207320734535141,-3.028561399430523],[-1.6781263190781368,1.8910559612400422],[0.4722133796176049,-0.46697503448113764],[-0.07294584851993766,0.017536678153488795],[0.0868934313778158,-0.16113272654320954],[-0.2997616188824375,-0.4319594174461277],[-0.26213809118405434,0.08650529196773259],[-0.14846177785256276,-0.1189527523104497],[-1.988631468156665,2.294846853217393],[-1.7639263184697542,2.116824367542959]],[[0.18323675535576198,-0.25058094726996977,-0.16648768646540324,-0.45622674589245815,0.6874521103157719,0.37256925055622786,0.3881814214672258,-0.18901712073954213,0.29874990825540787,0.6619349079252066,0.2668792025347018,0.8106905935303552,0.24115185022820465,0.5305416679086971,-0.21446883210422826,0.23077927428745534,0.008800763534587279,-0.1633489259138149,0.5685424524162651,-0.19985808441534397,0.39219623741191845,0.6610338450592149,0.3943450668586091,0.005454177190961516,0.9370283030899114,0.532921987965015,-0.7934127515393355,0.3100029013286486,0.4720387419666951,0.30651883555351933,0.5244093249635591,0.03348736246567044,0.5106235604650544,0.7572036804791538,-0.14404852110102703,0.6551319590693029,1.2851752639568879,0.16975211465899617,0.5812283888878643,-0.060777711082892795,0.538945640202035,0.360637854920224,0.8567174855627739,0.021391608388488102,0.5843179566922299,0.4659408644987545,-0.12775733523372781,-0.270023988526708,-0.2574244470098963,0.6029822815900157,0.12739611015270919,0.04133496488213575,0.586657436300791,-0.07354248610537402,0.5585797767820138,1.1941165722026452,0.4112328251378964,0.4788747776102366,-0.3367108492009066,-0.10296867387672026,-0.15086466165149823,-0.03264520528009122,0.44361021411293433,0.28891766885186404,0.7828462598870679,0.15407506412387337,0.8663146920043059,0.6057994937706309,0.5223771064745095,0.3001307779690949,0.1164860904579349,-0.18327871393303444,1.1746315660757278,0.21059538336718778,-0.7422439094995288,0.6347888552934077,0.6310057816991341,0.31677311032384553,0.8750037703944208,0.049085530069794756,0.4351921378278159,0.6007916497268153,-0.1431254872756332,0.648441804525895,-0.013761299451884644,-0.818185572204201,0.032005761204372526,-0.23284079501013813,0.08118675112529333,1.400621291377826,-0.022665381874121038,0.514831991138258,0.05062120639094435,-0.1304369076109,-0.17668131709555474,0.7315085764579858,0.3573315944773389,0.16536996625479106,0.7741763634470958,0.7575010431146154,-0.3224339212187381,0.6611241276717221,0.2015529657499236,0.08823740337827421,-0.39511309983793824,0.315497680114799,0.3682735586581248,0.510539391757644,-0.08925133665740687,0.5974187556877205,0.8221590768003505,0.3338640396935149,0.0708047180146909,0.3130666694761019,-0.08676013319150698,0.46381332753896953,0.5333446580962488,0.5700702051130241,-0.088653183574714,0.26691171687776943,0.6178800477706059,0.09031694234754828,0.39382955304313516,0.4707039588018067,0.4912411831288352,-0.40281433123521115,1.0694215306065085,-0.1222902446447503,0.42863777351700727,-0.24528003904722873,-0.10682283226258059,0.06457856458746287,0.7782956001788587,0.20765486941898556,0.5916142729727568,0.0672626142930001,-0.010158964919093696,0.010157841016783574,-0.11592950705769449,1.1091693874665405,0.5181904005015512,-0.22910247994188082,1.7959274539815975,-0.26481007774000304,0.08259111226885547,-0.006612662091011009,-0.01374408246525467,0.5938479212710546,0.2601090359703548,-0.09972682538226263,0.37500571397677596,-0.2706582287686072,0.21117286610544583,-0.3138804414279198,-0.48216735132849897,0.09751885907035028,-0.18326888136865174,0.6282990506151825,0.34567809092944296,0.8885800927318063,-0.10473169702933552,1.3737973000473824,0.9720560674167178,0.006928582631901863,-0.25707942337207135,0.4286547370882035,0.5489466986395118,0.3576040449560609,-0.1341452601412802,-0.2909855111125845,0.30522566226027026,0.6113495395702783,0.13730860018509142,0.5511953643299676,0.12879231372588798,0.9814319640851095,0.4284833785287195,0.010325991714909005,-0.10363625715001595,0.4778454887582323,0.5619905436943845,0.22317776798214478,1.5466627455249014,0.8530629269999289,-0.2982157263790432,0.2981565570181242,0.08169194885987444,0.519338683957197,0.09301675667479938,-0.21439080547873188,-0.8915796397572086,0.5097495316847472,0.9662056508328477,-0.3408211097564788,0.6585513789306441,0.4616613554510468,-0.41214831514157624,-0.047194668484959214,0.7083994354445722,0.7624555514230629,0.0351780390504134,0.038258050051021446,-0.10647986305199299,0.6944932171330309,0.11308966282877232,-0.0020152199446340246,0.7929736235671644,-0.1261987652480837,0.6446109489857293,0.5914423322734385,-0.1350733545231206,0.5970248984607618,0.018269301059189145,-0.1823497410305488,0.31690756343846554,0.17370886007914743,0.09375853486956084,-0.6420842795650012,-0.36774618018039706,0.11732881592935733,-0.18850425050573075,0.5683512569750169,0.009484470519576897,-0.33724838158511555,0.20819595465515603,-0.17334647377297727,0.6121456067630461,0.10686322875576872,0.3498761636074409,-0.00934281621884845,0.309979607650682,0.24686108871394902,0.21157093900108812,0.46580813349991596,-0.016351168859025524,0.10344591351314647,-0.06751134144696588,0.2561721426389387,0.17783029520240265,0.626703619588283,-0.19859776264563336,-0.1155529801513127,0.39205572507354114,-0.12333275696460326,-0.11556291523956762,0.19317593339923736,-0.5877000047982346,0.11575252114754217,0.746559793189485,0.6636243208789879,0.623331890097919,0.3651420147104218,0.08464849285830807,0.18149754836154405,0.6146088108522147,-0.19969900577502347,0.43711800219175395,-0.19043289478698516,0.5020046221715903,-0.3102061288816403,0.6062625354191122,0.5894872466886503,0.22675836366096888,-0.056430093938067756,0.4473389753698515,1.1836396419395487,0.28923924738275947,0.16616114611848157,0.4904861091009386,0.4355718041440883,-0.47096581295495604,0.07347460927746462,-0.202101455427311,-0.25714762065651214,0.7282694318682466,0.14547071342396958,-0.026321667654613436,0.22736190253698188,0.21724787481411734,0.04165803791056257,0.0001866907309742164,-0.25374961081578096,0.9457889137810421,-0.170051667053523,0.13842109175628767,0.46991094202889705,0.5524963275185406,0.2689775058769458,-0.2540013827119495,1.1323338091048842,1.0510320310322825,0.5546658465361228,0.24088073530676687,0.10697338256515301,0.18745593894358833,0.009232497832074653,-0.11147819137015533,-0.06322525908488029,0.6688643845479554,0.6908847164915989]]],"biases":[[-0.4770650507421084,1.5151424575020982,1.3658171262371934,2.075380971482782,-1.9826881007720287,-2.608501485440503,-2.0339014083692706,1.8494445249269913,-1.5212045952829176,-2.3222691143833853,-1.8979054460262927,-1.7379133352187865,-1.9293974378914382,-2.405523000096678,1.8835158144731445,-1.6864281208273115,-0.11541778236235818,1.534758359945546,-2.9712333727862483,1.441986378970359,-1.8367169319753618,-3.0895462269722853,-2.482576379789965,-0.2784712623757345,-2.132509272556085,-2.9547176301667695,1.9534925585612526,-1.3036261801408904,-2.6750567509696235,-0.8949205494578409,-2.757644955248498,0.8408976745083381,-1.9986383557002134,-1.9546703821104925,1.1325170084714629,-2.3555648353594196,-2.376918374814078,-1.4894995604141459,-2.2536611740380876,0.6417263250506594,-2.081428951647743,-2.1360380635439444,-2.0889003694374666,-0.7371464988523725,-3.0116831402678246,-2.889108287743243,0.5416607286043783,1.9025478242747842,1.3782438355994264,-3.0796936728897584,-0.6569070655028687,-0.6140443464330781,-3.0942660428827704,0.7809963567434335,-2.9205256706761427,-2.2345590516649128,-2.226958408290356,-2.618330255625681,1.3337554186557397,0.16470751571581277,1.453916017980737,0.8624548368617667,-2.6852077601960773,-1.842223684788489,-2.025035059800375,-1.3576669430437607,-2.1289481939631307,-2.955562545808471,-2.9139578690209684,-1.3610212991242185,-0.2396844985220211,1.4024644563291617,-2.2329021785103036,-1.6377977866603615,1.8493868843846692,-3.006306430023462,-2.714543385383424,-2.0056519001916855,-2.142315182228222,-0.04537324425619211,-2.4787149000753095,-1.66682965103351,1.3200679359338083,-2.315019982273049,1.0661462975574323,1.8861543325609287,0.1316950771883958,1.843981537362772,-0.5603702657961217,-2.3857841767168413,0.948287336875599,-2.900313582980707,-0.5361610514940657,1.1145529466652506,1.5895340273843954,-2.6738908284602636,-2.3513257578554976,-1.6451740447890222,-1.6806548509348753,-2.377450727162782,1.4156394829820218,-2.993713075159806,-1.608585308446592,-1.2633780157337196,1.863280399861595,-2.4213859625958705,-2.4604399923506954,-1.8339185111456475,1.4701350313697996,-3.1596139957425815,-1.954454513589608,-2.522517031201288,0.02002382730627925,-2.4382940947533265,1.464029992144078,-2.10557301261927,-2.0310851350116383,-2.483357540639941,0.20089803616277557,-2.134223906479646,-3.151808798245955,-0.05169336183151777,-1.5817897195833004,-2.818667011551662,-1.9751722988565532,1.7836726478247944,-2.2266211972157905,0.8327823353967985,-2.404956204655058,1.8572355365995186,0.8888310849823021,-0.8649087284093705,-2.1238350265642105,-1.9016441118303076,-2.659950277532759,-0.30589687140211624,-0.2601850186773643,-0.4672482016747,0.9952348181539484,-2.1936416212986374,-2.493600758277374,1.830066833395585,-2.706789117814072,2.055957386631575,-0.5401798894120315,0.46755345255575587,0.10558256494731467,-3.187271905139839,-1.6822814909271793,0.09226959629305005,-2.177918592209169,2.0689950676663114,-1.567478340745025,1.388980795451675,1.4948755299441787,-0.20488271007568018,1.253990659942624,-2.306980706288793,-2.3768187914090757,-2.0653501897236493,0.18532265910906526,-2.441186426182723,-2.130532449200929,-0.20055294066721407,2.1272634596525792,-1.9471344810078397,-2.958726158646674,-2.530129617061668,1.1808042328411585,1.8930519006637054,-1.7796178648578749,-2.6625171341288887,-1.1852193635848538,-2.7974202665006707,-1.4056996155934642,-2.102372396926933,-2.6544924440748754,-0.28505780230872046,0.6017741797185807,-2.713961928494941,-1.9381688527905356,-1.2262185774799201,-2.5440270704895975,-2.0546522821930115,2.2032297431520975,-1.8337620224477167,-0.40632137255730516,-2.5539611620619307,-0.7481957966309826,1.264068805108773,2.007670031755412,-2.2916880689548296,-2.176812329227317,1.2165867857432477,-2.021214665677583,-2.2827548501092325,1.5014096045499188,0.8667766211003319,-1.9197907266527403,-1.8120730208429432,0.5547306600102315,-0.9383676208809971,0.7024777132516543,-1.9213020960424825,-0.6708331020991347,0.29394284747668736,-2.2095120724977604,0.5082234920138302,-2.605156960916792,-3.0002332095590902,1.2480559089757401,-2.587615730326858,-0.03315571165970902,1.936770602306126,-1.971662756900281,-1.8040336286419547,-0.20103374558435383,1.8050765261507387,2.1575905175069843,-0.424813640199197,1.3915405143634387,-2.29257677785041,0.4687336789478157,1.7636295636640344,-1.6716746120374393,0.7852931252934179,-3.0174164649489406,-1.0757318628574233,-2.257768602477425,0.0797088890880636,-1.2408461439777159,-1.5322703789534715,-1.8466985875356705,-2.5067655459234146,-0.3578928459821856,-0.645989289570357,0.6702585662915209,-2.1263784256591634,-1.6426008068685325,-3.068770063773909,1.275207872653121,1.4553049694173266,-1.3284686718863774,1.349886679447513,1.037432227200953,-1.4821681603068961,1.9184025697721305,-1.572791559589589,-2.061611217582017,-3.0564746974560855,-2.6144598393899416,-2.279685789731786,-0.3162618799974124,-1.7435055418852992,-2.256328545899,1.308608240818262,-2.7147591394977493,1.7066381874608514,-2.6146559684125408,2.1698934071811675,-2.88333447061752,-3.072613199042903,-1.6257087693130605,0.8446326828042896,-1.9154754045104196,-2.240646285630101,-2.359704834700278,-1.7503388110097413,-2.089824013529288,-2.7944821854403084,1.8380157071656003,-0.9678152827897333,2.0344479010765384,1.9552955877423333,-2.6015982970135725,-1.8292941016840307,0.5766475077424978,-1.4860704083676033,-1.6975942247393245,0.15424130456255986,0.5159074218238076,1.8753989705419691,-2.0399230307616047,1.7750930749815912,-1.35949951956138,-2.726019540268089,-1.6480642231495513,-0.9868611820664731,1.36498323620793,-2.2793552349463306,-2.1716492600785138,-1.9698245380567558,-1.859372364146337,-1.0025497309823286,-1.6335251170551748,0.14710332288286393,0.49124094457721634,0.9177447728455205,-2.033472371160676,-2.1980722419387417],[0.3903679950309041]]}