{"metaData":{"sizes":[2,300,1],"learningRate":0.15,"epochs":10000,"trainingName":"XOR_TRAINING","errorThreshold":0.001},"weights":[[[-3.0497320433445867,3.2938737382342653],[-0.2069656313416146,0.007814711702983422],[1.125171871797312,-1.0357687218368314],[-0.3588954594701882,0.3612179367543908],[0.23518915167160398,-0.13724184866140038],[-0.1306550472957099,-0.03999641743674956],[3.941370777579023,-3.875530046645041],[-0.23685511673302978,-0.0702029065943266],[-0.5004535069860371,0.45926232189835264],[-0.42042203069217554,0.09508288994059291],[-0.5021720771149492,0.38140553176675585],[-1.2990503866318293,1.3887547179728064],[-1.227581284688714,1.3582790501326356],[0.3189396260139671,0.05527082717955726],[-0.9686125816556054,0.9937693356383165],[-0.22135615101573414,-0.17702217877960483],[-0.20947269795339815,-0.12423860612768643],[1.776362008321219,-1.7506365025277126],[1.7605084784310885,-1.382071969141832],[-0.6130165194102475,0.5198734684214457],[-0.04075765661647667,-0.33170194021798804],[-1.9732155580601232,2.393492210558697],[-0.1586380066667831,-0.08482310529407894],[-0.12440544784728197,0.07118032354206721],[-0.00797285980792416,-0.15372379615023885],[-0.11819862856124566,0.13858932687296732],[-0.2961004242744035,0.1593051032760602],[0.11002217948917731,-0.20923872872374244],[-0.793008884998088,0.7151639411018839],[-0.008783638804214924,0.02105227888017523],[-0.10468763907064624,-0.027805632865216163],[0.3857346468683438,0.21786101394369548],[0.16121528377105146,-0.21731148576499842],[0.24447541291289066,-0.0193724812352767],[0.33344087310009674,-0.008962614323679034],[3.879656347450113,-3.906417094204019],[-0.7896546096356396,0.6795519572075421],[0.05597974007985049,-0.1841759784549232],[-0.11722605252196565,0.1886207910300088],[-0.2318645407538671,0.43794196643372724],[0.2205642988481476,-0.5015969648328044],[-0.10941160082303515,0.23331817174971284],[0.25379690128840604,-0.5223446759685475],[-0.8216870558802823,0.8932015428062574],[2.460160106104161,-2.5319291175873415],[0.8828525291687367,-0.8156621271807977],[-0.17402093155257578,0.30557967064375263],[0.5629385283367756,-0.7017268214891642],[4.857081231070436,-5.048931378423658],[0.42362476027458057,-0.09217911430624126],[1.2439406272429228,-1.2869298703415517],[-0.5415576630241388,0.19080358702972447],[0.13722375522745067,0.15928350503947056],[0.657696322238525,-0.65061076057936],[0.14203554914597694,-0.23975834000233667],[-0.14166866053511804,0.3848115481774054],[-0.12493974482257736,-0.4505745845845818],[-0.2987157699227027,-0.14474750420031987],[-0.3900474254171593,0.05217766890154649],[0.4026763760035369,-0.050688093495356024],[0.6632488535305787,-0.34704780064733326],[-0.2279271432141567,0.05446992874221435],[0.5869129753250768,-0.31021297519025604],[-0.3056345831363326,0.07373042782401372],[0.07926868397533351,-0.3954297143697926],[-0.12482805022876133,-0.03982653196625977],[0.2178237345834992,-0.44794374207838056],[-0.02515431251353501,-0.24193611221810848],[-0.44191900693293534,0.0913647303382765],[-1.4595798561190823,1.713395261129389],[-0.44986116096942536,0.4284182689209687],[0.6348613196997391,-0.22768168565576843],[-0.522995926069201,0.5204612266364138],[-0.15432278183817022,0.12328097041883997],[-0.7071390936729007,0.5276265445062774],[1.7463757322603721,-1.4462839434722812],[0.04722893479331109,-0.07265779116424353],[-0.40137319614264694,0.13608202995205007],[-0.25764936773115893,0.13191278745085575],[-0.5462461857547316,0.4302929974313697],[0.8333994893286856,-0.998100835097812],[-0.8947839950454689,0.7528984950024986],[0.6008015820692675,-0.7412911943228362],[-0.5731378017361545,0.589140708627557],[-1.632185147259157,1.9832826894149356],[0.19066204938096595,-0.3706090623883978],[3.4781637902017906,-3.4656515227009965],[-0.04811621250071114,-0.3482350193039642],[0.9998733770089115,-1.0022593179692567],[0.243029296236204,0.022591267986810132],[-0.1732365491824218,-0.3338568340197401],[-0.4514671280077608,0.26217376073864457],[0.5216157972792991,-0.33464827623747884],[-0.9808165446505634,1.0731829652476454],[-4.379768762215114,4.334776940623547],[-0.1339661322489359,0.24208865510635838],[-0.5924736034074973,0.5676175415205574],[0.9436438728517765,-0.9023601772443859],[3.6453380170344176,-3.5308443373853926],[-0.24459630458608095,0.2890049808803759],[0.32037603864915054,-0.4352176553969065],[0.703473077225703,-0.41202727738755607],[0.260067051907537,-0.039326922707788245],[0.9739076378525784,-0.959168080776854],[-0.06095234942852643,0.08817721228183253],[0.6671208261070485,-0.7088461229940529],[0.3810850032562849,-0.15692942401232313],[-0.3558261754609154,0.23106363860767803],[0.38756862623964294,-0.13668936408597063],[-0.22558175453973042,-0.03385277361076826],[0.8460786953006587,-0.798357139916676],[-1.1242702146257622,1.1906566361339217],[-0.5476907091897678,0.4944619167361196],[-0.9988911991723111,0.9754141667044366],[1.0056842833242634,-0.8960993320989245],[0.3443144790439551,-0.362473528241041],[0.027153862979142653,0.24275766420806807],[0.30630164982640173,-0.5810702043475092],[-2.7508023239383728,2.930896648157075],[-0.09330623864219327,-0.23433383457938767],[0.6184819857300249,-0.2763779827771988],[0.4762560870918465,-0.48192509073362305],[-0.2697715005879632,-0.41728958603047045],[0.19148574211347402,0.12424227083875299],[-0.4560476479677648,0.4315356980544152],[0.8485499088563464,-0.9165839105997691],[2.960421362183102,-2.675905721027803],[0.03048770764892642,-0.02294474287253834],[-6.328700539346871,6.097402669694826],[-0.6657612493091135,0.48885426763705964],[-0.23650172616387424,0.152735518847857],[0.1529761864373824,0.06599045011119951],[-0.1703053304121273,-0.19069674296745454],[-2.9398391292978108,3.1971840675849656],[-0.9600801555031615,0.997707819469716],[0.2152917052461687,-0.08574624853052472],[0.7016160311883073,-0.41120328950707286],[0.300294620838711,0.21419566009377822],[0.4876528952914685,-0.538572745568491],[-0.21549282744492396,0.34849977609919874],[-0.5350202567168049,0.38758062979306224],[-0.02690125084431686,-0.02882910244617218],[0.15503799644764407,0.2769271780501499],[0.015465278870819228,0.3443814691904392],[0.28649980011854315,-0.20229446036003337],[-0.08852075840013339,-0.4179553242780185],[0.32920856780405977,-0.31082295977079805],[-0.7004894512256455,0.5719499835548775],[-0.3158102670406701,0.06520085582053917],[-0.5119711240949069,0.4320460365810486],[-0.2572141275299287,-0.43788474997354393],[-0.07514630068132484,0.0637232611142794],[1.2223111685199224,-1.3038083255060358],[1.0406353279996854,-1.1518832019396599],[0.4411270064117694,-0.5989097157942767],[0.20725327982704114,0.2004581612323737],[-0.015764639975054284,-0.14772232816393085],[-0.27689245975391413,0.15676199813780697],[3.5182187683388535,-3.6730007488476035],[-0.34112172907111915,0.17512138322011647],[0.3302490191317899,-0.5498001274095812],[0.10057562803647604,-0.06724195006434573],[-0.3187457291980811,0.4250721968899439],[1.3047555755560627,-1.165339710394367],[0.14404436681240546,0.22301095364643198],[-1.082315881849786,1.137952789590286],[-0.1462813533671913,0.3733150601519729],[0.004664569807002894,-0.07142626975341451],[-1.881450934792798,2.1467083728535585],[-0.03954487186884929,0.1965378866843192],[2.3098962598189576,-2.0652056289075684],[-0.2805268839964203,0.15824870143616623],[-2.159293045920534,2.3938778226014326],[-0.35489922247028083,0.20962276995647317],[-0.6035067122971296,0.5901837302575007],[0.3766501184287027,-0.44926758331239536],[-0.28490430402602496,0.06827765546106382],[2.926047966995534,-2.953416625100227],[1.6514965365144187,-1.622375270207108],[1.0845158772962293,-1.0836873019776412],[0.15245370930597393,-0.012714762315171105],[3.1656481595639683,-2.896848920739317],[1.2689582102482673,-1.2664205888333246],[-0.2668673992594274,-0.07511300082768278],[4.07137836208886,-4.2482952110650265],[0.4208277504275291,-0.35666812209087084],[-1.6722705831884033,1.8994809324283388],[0.5121767448194515,-0.6713811144803772],[1.3216439025789504,-1.3938638383057302],[0.057836674147333386,0.26866540650335957],[-0.08062506613806635,-0.18529044189584917],[-0.4021134984122114,0.261875978138299],[0.19576978246083507,-0.20166795646677937],[2.4839279939331425,-2.309309850932105],[-2.3985189692742885,2.768956946659401],[-0.41842708272459406,0.17599626315754768],[-0.19094990633879722,0.20687224449970426],[-0.1292223887223963,-0.10647515681608753],[0.5120723495075673,-0.2628191589881516],[-3.5009310906947158,3.6247620067258217],[1.2273774685249608,-1.1115914938411129],[2.9696198269134717,-2.7891506785937414],[0.7882395781312729,-0.8729407087783388],[0.4616691790999862,-0.10193944900513344],[-0.20982837368656512,-0.0033974123095408706],[0.11365188356742127,-0.48421767757880785],[1.3557956735731416,-1.1954176415980549],[-3.3111434227095597,3.514046134765239],[0.4389723899399393,-0.5548934351137528],[-0.5781455816807202,0.5039905804872563],[-0.061921524392789126,-0.16688834575728173],[0.34063324421119995,-0.40574981340773153],[-0.2644733120910421,-0.14909465834022415],[2.3079704676297594,-2.1983786810982004],[-0.2218095722504785,-0.05807789778790199],[0.20640269405461042,-0.5425782727039309],[0.23108403124315674,0.06783848778215923],[0.4367191712133605,-0.5347941553111054],[-0.23985126168794738,0.10774580682469495],[-0.17027868539010638,-0.16205965849026518],[-0.1661457083422,-0.5851698718264003],[2.3120294911093233,-1.9854218074996524],[3.0008998681518495,-3.0380210250438675],[-0.08262198711781832,0.36294903728417627],[2.7321932016960755,-2.4781696978190286],[-1.134129904155682,1.1988333487348757],[-0.17035253152872876,-0.2016802673632319],[-0.7094648592654572,0.6947714766382449],[0.3304577606255533,-0.5811518594261427],[-0.19234623886148444,-0.08140224888681309],[0.42370542917173637,-0.3633824003141641],[-0.45792700643297757,0.22853700417709433],[0.6611898439228567,-0.7790451934825022],[-0.80191419338222,0.6745265419394515],[0.30726519175256667,-0.32997428765240033],[1.06782674978811,-1.0274652294930087],[-0.6920370451216454,0.5610980610600209],[-0.15288742940819455,-0.014922056195647038],[-0.061624442791641566,0.10296683867450204],[0.21009372244281124,-0.391235452733436],[3.641952909728895,-3.6281046432922683],[0.5019959050652579,-0.512797575941125],[-1.0235025107070328,0.9026596178910795],[0.41785937217912117,-0.4738868761592404],[1.245004039617016,-1.073432611633],[-0.17054874438938938,0.363276140596972],[0.21832545363449318,-0.20067612996911993],[-0.12441725138907492,-0.10833682713736617],[0.4823831762595071,-0.5928451617998742],[1.605626170970949,-1.8371529837836784],[-0.23977686921040392,-0.28065788918652645],[0.024321970973092424,-0.16095106397575523],[0.4122680124295065,0.018650690857384102],[0.28383215340706525,-0.04450953550276374],[0.33861155524403314,-0.6460877203783298],[-0.5899739929757436,0.3151232867262009],[2.6474080061402767,-2.5328678046213846],[-0.1535283111120142,0.3406388586511755],[0.17622241085873036,0.07626974655118231],[3.012509382115546,-2.757898054660614],[0.519499148371323,-0.2715481334581941],[2.830988508785499,-2.5937677569909017],[-0.8943662161325087,0.9007731341409334],[-0.4412979161173143,0.19983757904869268],[-0.6838666490048865,0.5062617122894079],[1.6801411877870287,-1.6063203102763173],[-1.4030746641420726,1.6898734233011163],[0.018247894203921127,-0.09544296567527619],[0.5612200609563274,-0.45801973964131987],[0.022277666570633157,0.1720019133486708],[-0.46458800923902505,0.3151977673613325],[-0.9819202612603083,0.9178396275232277],[1.087654394583314,-1.007838788768896],[-0.6028381079179934,0.4798892148057008],[1.2817270386781174,-1.5521289320900817],[0.6005388318573744,-0.645364732385514],[0.37468074645349786,-0.6296228789920969],[-1.2446326145757356,1.3689783604414894],[2.393440268992514,-2.091659852816539],[0.612451699379292,-0.5693251195205231],[0.18929237568801083,-0.33430995949271436],[0.9412994662200803,-1.0466070263130254],[-0.36422111543203395,0.3137784081026383],[0.4543173158037816,-0.6267021051804421],[-0.09209004513976488,0.14119677847821077],[0.3561062132679618,-0.2972974170703156],[-0.18678362059113382,-0.15173209624013959],[-0.6842181376327969,0.79950751431436],[-0.1651324112949847,0.39956377490708295],[-0.8082794279466483,0.8301352002460749],[0.47024080498290616,-0.5122106171585167],[2.060954929501758,-1.9811544052875942],[0.17108651006946493,-0.2771931168892587],[-0.050007321334933005,-0.19769327663462022],[-0.16174634663093718,0.1609120167351804],[-0.6990337071553029,0.6519766344433578],[0.03930421062197157,-0.16984324656339292],[-0.1846339456340956,0.2685086427332455],[0.09228151788382426,-0.3806105796574227],[-0.4080168470065532,0.3735665365691441]],[[0.9514451075456746,0.23923718363331756,0.44707226522452886,0.12403563516189858,0.15161240551139327,0.5650693517860347,-1.2241521972649578,0.06473974456792654,0.16517189212177721,0.5814589871842147,0.5389401091469318,0.47497891156037175,0.38364392866718133,0.055858356320621846,0.633976397606142,0.30716780602641097,0.42762828085426613,-0.48186499232177193,0.6716949257106739,0.2764549888027651,0.5777978258718861,0.7424645210756939,0.2425445183349593,0.08160560954769745,0.6035250121252224,-0.070851429751717,0.11751254205822155,0.36685442244664807,0.3249645624883458,0.26786464909644025,0.35410696786377716,0.018171136035097787,-0.07695414578286683,0.040675078527801126,0.02088075177827212,1.2861753515792391,0.48210783121608053,0.5102097064112663,0.04724696110796394,-0.2665381201006461,0.552406342959558,-0.07452338166511231,0.36673898226216994,-0.32087368464009286,0.7260372850864458,-0.24314001354961853,-0.09959113924857703,0.6379541793096534,1.9013363973131898,-0.13292875906689364,0.4223772313857183,0.5658765898759677,-0.2893425607656728,0.3530492324754803,-0.06553802482804293,-0.16970450344723267,0.06694953912013071,0.039181144634430905,0.3587471599238481,-0.25553211995599723,-0.15043950610138543,0.208442160741425,-0.1757868956895586,0.1708680137598613,0.2185827582059391,0.03128593602463986,0.20139947596983918,0.08032396661561468,0.3676300962440394,0.6264700302559887,0.39011192622552726,-0.32193572892050343,0.14595014357374647,0.4582923823143958,0.36200951332660086,0.6951396279747987,0.4242048245701069,0.3774181005948089,0.16383794070206148,0.4554730095716248,-0.29483279862712436,0.609796172564059,0.5978489540604943,0.4396467650517908,0.6362868063272958,0.45837218314015316,-1.0266594435658474,0.1976606889901456,-0.3552200294046361,0.017629673837848785,0.02098697214927424,0.47640663166827085,-0.16252943460452882,0.5531871889008104,1.464246293289654,-0.21154091915194095,0.24151478080856228,0.3237542211334354,1.1798386266357626,0.12926140695949556,0.41789133357909053,-0.2452948529411798,0.08801744404800801,0.4912689055246648,-0.010881505392773449,0.5057333653453376,-0.2134846851979929,0.538899703174648,-0.0316193293866872,0.4652782817283775,-0.26215104515505383,0.4682274309054215,0.30453972955265723,0.3677874743325894,0.4312319916453915,0.4484601906366045,-0.23833365762185213,0.258500532257289,0.8053476116954243,0.29440148369829305,-0.26769078899564297,0.2676825601701225,0.04200387914441353,-0.24901767064877336,-0.2385450422715425,0.39001078548625734,0.8896710924297039,0.42662145453689876,2.912716424985323,0.23665161060080156,0.3832523784411102,-0.15815452904585534,-0.045255922223138026,0.9207322351728587,0.5172003954736444,0.11041557267351906,-0.21922287324660683,-0.05917650530140109,0.18561425632547804,-0.1570278105925775,0.5925496175712732,0.15490615965616863,-0.06282504970301801,-0.30303213670823165,0.13918008596854572,0.014351360458247205,-0.00677953510320746,0.6081466291693176,0.32075488560078286,0.2663403764443213,0.005021240826721041,0.14860274050799294,-0.4082640907872134,0.3566396776095218,0.18288538265168544,0.0138261058815076,0.3984389750947886,0.3730201623975928,1.1304646714957616,0.37041617370861457,0.6033541756849091,0.011006909891732131,-0.15003891353112891,0.542674059078295,-0.006065776783691217,0.47939343261054557,-0.3016905877009256,0.2752072628550678,0.6013808697079878,-0.10180920239090874,0.6679304576356002,0.20772498002790413,0.6542857981561546,0.49068829130416525,0.5451890571545488,0.24106175576124672,0.25771462245629395,0.8811484870588021,0.5078292923503142,-0.3955144343700767,-0.14097607010306187,0.9580084484832941,-0.4035905056312157,0.4362720633135109,1.4076712793659658,-0.09641069117870399,0.5421936017864288,0.22648934526548975,-0.40415553854552544,-0.2325097564495088,0.36357968604033214,0.22075997019775875,0.13273562284549742,0.7450741611372559,0.8199193557175221,0.21540501759113245,0.3428392077715791,0.3186386798399742,-0.2992128713887113,1.104321104019276,0.4443972582097452,0.8831241153199473,0.4601852928769053,-0.12088970148758266,0.3593088338631882,0.20243063895353264,0.5937647343574639,1.0709978133095905,0.4639406027580019,0.6011318589140568,0.4642388244650787,0.4904484439190382,0.5176444687517009,0.6564809422311358,0.4231206448480827,0.13309496839379692,-0.07013579131342154,0.433855322988737,-0.1518071110452682,0.30827236524736484,0.023217627836256895,0.723796762531046,-0.8554599451402434,-0.25940394947350015,0.816463759238829,0.48756255467973547,-0.05259982499953282,0.3443561791614626,0.26894020357661624,0.2737052650761775,0.11548921259764099,0.2533182209559241,0.2595619353861158,0.2829536109695307,0.08462557583867612,0.40530461412903435,0.28850006291616276,-0.11961492931778149,0.4373063344120195,0.3800647538022006,-1.100021992046089,0.2729285989528789,0.2839999250303552,0.30205816086721526,0.7235282486546566,-0.135063462540988,0.05654562882558522,0.1595526775350828,0.22984455324352054,-0.5287525655704126,-0.034419274182099384,0.3028984532148087,-0.3110053452566565,-0.17476448204542966,0.26119114132264976,0.6395586567878581,0.7690237566618986,-0.252652169652563,0.058159581067957884,0.9048817378828422,-0.1783197750833465,0.8487679169803958,0.26517711649939074,0.48509081082106054,0.2135031637358992,0.5209638357033131,0.6043896752828993,0.1150053093017962,-0.19121200893643248,-0.030277570661389638,0.5408031244585583,0.37650309763556816,0.6219213604389326,0.33463112843485937,0.4425556965269655,0.560473470193696,0.5026967197790486,0.46150992687291714,0.740659406939922,-0.24782485385162348,0.34856511255023115,0.3254262409911934,-0.216312233549667,0.6363079016905124,-0.020568654899521248,0.2582541332545698,0.4213320819033076,-0.2734962194708682,-0.2741055985563392,0.6076160785672114,0.5748285665305184,0.6233443032924242,0.0896353980940203,0.09280077541502998,0.35710154763378843,0.30587631450865443,0.31236331201587564,-0.16033932095756234,0.3217191521845044,0.12802092046383848]]],"biases":[[-2.196438303265905,-1.8372314670529861,-2.0956837991194965,-1.2443959770708508,-1.8166194529466104,-3.186748865478473,2.3147233026199063,-0.7109255557672802,-1.3484554162419904,-3.191288573822537,-3.0236062001559607,-1.9986349260752843,-1.871976482046121,-0.6774011846190179,-2.924036183639845,-2.5591649001670573,-2.903011031169849,1.56152940893769,-2.3838837194750933,-1.9495447147331777,-3.1904359841681242,-2.121443960400999,-1.6902362541864033,-1.2861857531118428,-3.1812417969327034,0.5145824960066829,-1.2107068050000722,-2.605549143933795,-1.8975783998517164,-2.1751824875335233,-2.4368103617568098,0.6748280959391211,1.0745539754979527,0.03432827288233118,0.12912014456828486,-2.3563285795151296,-2.5537633444799632,-2.89731146597103,-0.8128378688829659,1.999638453868206,-2.9768070492665233,0.4852002850538649,-2.2805845933748845,1.1668888927729082,-1.7715244609051817,1.3976033428332295,0.7452532115994454,-3.1337013822362647,-2.7416142212762358,1.6751327797213271,-1.5397173227801868,-3.134686011981707,2.3556194731806723,-2.286719125571901,0.6227267634087655,1.000187532552697,0.08516594680904219,-0.09757610852628303,-2.651107571598862,2.3615728612191726,1.5648141634296688,-1.8008777625115986,1.853658685710118,-1.402600026641907,-1.9683386549172341,-0.47294068482262536,-1.716804559840117,-0.8149257061956935,-2.5836015435889115,-2.2508109370201983,-2.6005216005514087,2.493446105411178,-1.4439988311525236,-2.864559346610113,-2.212291702525928,-2.338818959086371,-2.853403035339171,-2.703175029452389,-1.4314138178849725,-2.6949853005605147,1.939228041070881,-2.9164176145033114,-2.9312239641445488,-2.721096794464138,-2.1364921138457604,-2.9028505957770694,2.1575405813422295,-2.0091689279839287,1.9969482396714873,0.5450125127750917,0.2320736515986837,-2.9603077243813116,1.1517812014582114,-2.5887031077865084,-2.5287540780692,1.9425327455595223,-2.0188029174654196,-1.6708396412316775,-2.311379733193353,-1.5894474819851678,-2.607664151639636,1.8466501842832557,-0.7589902892183238,-2.485149016802532,-0.19617315568283003,-2.6096778946714156,2.256012828161429,-2.983239298121572,0.1425209148494062,-3.0005020886655585,1.7428690844548367,-2.3429212528854837,-2.1754080642497526,-2.0713747165585743,-2.230711200111056,-2.777491732970954,2.246350177222411,-1.265917292278819,-2.0313895611721144,-2.0527336418751356,2.339600261406737,-1.9766160513632796,0.5040783340606751,2.232098340744656,1.8656427399381814,-1.7941934152706076,-2.127954930948229,-2.8395903435729872,-3.3000511159694814,-1.8274750349241944,-2.600960310131478,1.736424493489137,0.5543099282876239,-2.1656721979743163,-2.494469282041197,-1.647647824995592,1.6623142188722724,1.3038924669369902,-0.853963987337232,0.8417646157392366,-3.1572608530610253,-1.4415074330855138,0.8814718930749986,2.3608629684046782,-1.1646470226962833,0.4586859839785581,0.5294382531337155,-3.0585003231527916,-2.1681147227724433,-1.8652414431295585,0.967318259739863,-1.6332177104395178,1.9671166322888352,-1.3480313550324703,-1.0129574413887974,0.4169080692396981,-2.8024229885422507,-2.7383413531485052,-2.1520586085290914,-2.4963881641959675,-3.031024537036817,-0.2766387100372856,0.6462485408704848,-2.3349993569417284,-0.7115445499988042,-2.2095231230500736,2.3840309224837153,-2.094916973901583,-1.9138152724098167,1.4604712817352532,-1.9338221836484806,-1.9657605690904143,-1.919453584086015,-2.9721350606050096,-2.9459859285873073,-1.7693453077107022,-2.101796907602307,-1.9630694477890536,-1.6696246511958397,2.122717022643321,1.9059858938743892,-2.1892645656182648,1.7901116634622418,-2.8977402318385677,-2.3863802975851427,0.9301913879602061,-1.9482520805711707,-1.3200753666886307,1.7445450542268843,2.126149205804124,-2.7152262475733537,-2.080138378333857,-1.1909820311922208,-1.9278381299442826,-2.0953651321875775,-1.4381410495700875,-2.501248831623597,-2.4836234878711076,2.337104704742985,-2.2796868250531266,-2.062866838437927,-2.0762135223532416,-2.3700567238418255,1.6562122083706674,-2.654220556406082,-1.1732672092292604,-2.4005635973735373,-2.266580508257945,-2.632678075190226,-3.0672163109847776,-2.913526776647057,-2.9048749253501325,-3.019481442995194,-1.8294209786084625,-2.8690024856862326,-0.6884053044217792,1.1010178913486006,-2.7118610954144025,1.2205574736048157,-2.444866221579128,0.5250433214244218,-2.0335083815524477,2.003925814414206,2.2181590036660395,-2.043449790434377,-2.20645960364169,0.9649171826513641,-2.2823023371921356,-1.8320792988202692,-2.3269973108176285,-0.5214778109405067,-2.0710770319904657,-1.0493377737048533,-1.6744784664826307,-0.47651668115077656,-1.8386053711636223,-2.0651355950957475,1.0796148991675487,-2.873823811055007,-2.4913185304204726,2.2263466529679268,-1.6860271489966676,-1.4167464176530344,-2.130174202539196,-2.7660957496452276,1.0194986803627906,-0.4128579715843978,-1.5475735046973018,-1.4035762460535715,1.9261734963972201,0.5498150518446725,-2.102994665379115,2.513645840013314,2.076069699814875,-1.2246728134199953,-3.1637800028034144,-1.932347839524419,2.125284602366562,-0.6351102074076681,-2.129409888486595,1.616760308239421,-2.060839751900457,-1.7047772302456539,-2.817812094660038,-1.5703426892907713,-1.6920214892414147,-2.241976607783403,-1.0077374069357845,1.7799777950897124,0.14015104698193095,-3.0694525766503995,-2.1124755377659117,-2.612585002234331,-2.22967794614757,-1.251357718116455,-2.902418397351573,-2.7508205460307784,-2.034148352755537,-2.0135438489074655,1.9627585706108246,-2.3950598059699275,-1.334025501649215,1.6141914613268562,-3.0889596555396,-0.05680875596350665,-2.072809479013286,-2.816333008585656,1.5282486470288974,2.2256277199345473,-2.870633104125208,-3.087401777211953,-1.7656680092535233,-0.5431980412778239,-0.45658441924337323,-2.632847258626651,-2.1168815481733634,-2.4467068237827556,1.1534902921672958,-2.083817108146035,-1.38413483910493],[0.4532450282205842]]}